{
    "Stationary": {
      "tankbrain": {
        "in": 6,
        "hn_1": 12,
        "on": 3,
        "weights_i_h": {
          "mathjs": "DenseMatrix",
          "data": [
            [
              1.4389616017718112,
              -0.7382144755501271,
              2.159021367370053,
              0.6381023748921197,
              -0.8007322155171639,
              -0.80154678480483,
              -1.9856974250578632,
              -1.1435289523520906,
              0.3865669852061124,
              1.5223176376519831,
              1.336247407806938,
              -1.1386145265587402
            ],
            [
              0.261153764249477,
              -0.8176455181019153,
              0.41300968759504564,
              -0.9417626883067465,
              0.3337913158865961,
              -1.6340359730170995,
              0.4733374682043923,
              0.2806625751617949,
              0.2717194896853855,
              -0.9764618491855086,
              -1.9236445197808474,
              -2.937069147119643
            ],
            [
              -0.14611901869253927,
              0.8849064505497084,
              -0.7180112703258967,
              -2.1311736436987965,
              0.6734288368230146,
              0.7539221779192629,
              -0.5725322736637515,
              2.153963867124145,
              -0.3962982552332675,
              -0.32398231281490986,
              0.14630059464027634,
              -1.8217281419287104
            ],
            [
              -0.3982459603886738,
              0.20125955292555114,
              0.18520092462376858,
              -0.21787858403198168,
              -0.663482244567432,
              1.2229956662014974,
              -0.05857604805609465,
              -0.6939222100525025,
              0.3188308618461307,
              1.0473474627494266,
              1.0502102382934364,
              -0.861440263885763
            ],
            [
              2.045673514827215,
              -1.8863699220116958,
              -3.138746003309192,
              -0.8665105562866775,
              1.9677681865783723,
              -0.4849258409863011,
              -1.2392013010450171,
              -0.6515222075942638,
              -0.9039232985681629,
              1.7676580687514774,
              1.0519799489393613,
              0.4499396297551642
            ],
            [
              -0.4531457999098706,
              0.36950960884420536,
              -0.42004039093333645,
              -1.5210082727831367,
              0.982311405921267,
              -1.3460416798841301,
              0.7516968961159072,
              -0.5518530902605233,
              -2.5654709246825207,
              -0.6589597488098402,
              0.681690289986799,
              0.08607738980867172
            ]
          ],
          "size": [
            6,
            12
          ]
        },
        "weights_h_o": {
          "mathjs": "DenseMatrix",
          "data": [
            [
              1.032941412474715,
              -0.09574952793498412,
              0.7979826029627707
            ],
            [
              -2.0598840879517533,
              0.3426296941017629,
              -1.2193355563594301
            ],
            [
              0.05989320110911661,
              3.5426359006141506,
              0.17598990959398841
            ],
            [
              -0.6828317141477386,
              -0.3355107833031227,
              1.3576126066757914
            ],
            [
              0.4978623004851033,
              -0.8988306444851576,
              0.191664055190648
            ],
            [
              -0.3469802450739484,
              0.8141712883003733,
              -1.152361393829195
            ],
            [
              -1.0069534552402648,
              -0.7248772122227422,
              2.31763592416517
            ],
            [
              -1.2578413508463981,
              0.2716172374931221,
              0.3012581840015686
            ],
            [
              -1.7805777319487162,
              1.6105489909162876,
              -1.1772012672840915
            ],
            [
              0.711988410090014,
              -1.3085758343556366,
              3.652299798946295
            ],
            [
              0.6360193673581053,
              0.5630407484032489,
              1.4205632707140745
            ],
            [
              -1.7318125771217552,
              -0.7684387655752197,
              -1.7211410020624247
            ]
          ],
          "size": [
            12,
            3
          ]
        },
        "bias_h1": {
          "mathjs": "DenseMatrix",
          "data": [
            -1.33433585017784,
            0.30591955846376273,
            -0.24308050796160252,
            -0.7497813186386494,
            -1.2515205010707549,
            -1.5796480012239684,
            -0.41885734201246766,
            -2.139403495693168,
            -0.612167961173623,
            -0.059382939597617285,
            -0.7599058647063893,
            0.12967902847316415
          ],
          "size": [
            12
          ]
        },
        "bias_o": {
          "mathjs": "DenseMatrix",
          "data": [
            -0.6342123996794832,
            -0.4553558000103957,
            -0.3968191148994068
          ],
          "size": [
            3
          ]
        }
      },
      "inputConfig": {
        "position-x": true,
        "position-y": true,
        "velocity-x": true,
        "velocity-y": true,
        "direction": true,
        "enemy-position-x": false,
        "enemy-position-y": false,
        "enemy-velocity-x": false,
        "enemy-velocity-y": false,
        "angle-to-enemy": true,
        "projectile-position-x": false,
        "projectile-position-y": false
      },
      "botMode": "stationary",
      "outputMode": "mapped",
      "gamemode": 3,
      "generation": 929,
      "score": 77.95863359909261,
      "hitaccuracy": 0.782608695652174,
      "populationsize": 100,
      "mutationrate": 0.1
    },    
    "Moving-y" : {
      "tankbrain": {
        "in": 6,
        "hn_1": 12,
        "on": 3,
        "weights_i_h": {
          "mathjs": "DenseMatrix",
          "data": [
            [
              -6.893592688116415,
              -1.4280711951337695,
              -7.467469485749378,
              -0.39453356276937734,
              -1.2376774422594738,
              -3.4397593455144806,
              -1.5686211842755642,
              -1.406495488175172,
              -2.547498247367469,
              3.0301650056444442,
              -2.5474648188584115,
              -3.3251869268385468
            ],
            [
              -4.563124238631246,
              5.456689323168701,
              0.9440143626834862,
              -5.317807098110805,
              1.3924460682509465,
              -5.388812530233079,
              -1.753688871195527,
              -2.3429992882266415,
              -3.786515351292462,
              3.6338074055328784,
              -1.5644412599307351,
              -0.2624427275783576
            ],
            [
              -2.7785441687019605,
              -1.6466835317332869,
              2.689121075016299,
              -0.5914180863019818,
              -3.721099675387738,
              3.8607864789131763,
              -3.3159396255384643,
              -1.2519128795927932,
              -5.940387364368059,
              -4.911480359297028,
              -3.125582088626187,
              -1.0963700407704822
            ],
            [
              2.1739333548285864,
              -3.6724131546376184,
              -0.3329995980145547,
              -1.2483675799906018,
              3.3997016771742854,
              2.5533321593247966,
              -0.7740264466682379,
              3.7244045050173877,
              -2.429838617562962,
              2.028435063350901,
              -7.06888987529582,
              -0.6787696759623335
            ],
            [
              -1.1584727901453324,
              -6.1738937500896265,
              -1.8302543940941465,
              -0.5492789983263764,
              0.3671056607956149,
              -1.7724537316351645,
              -0.6644088959008346,
              0.5529189425598733,
              -0.7344543043335652,
              -0.014211636297632668,
              -1.5227239017718404,
              -0.24850673805195478
            ],
            [
              -2.2078169968507546,
              -0.6139858449817209,
              -7.3009756479445755,
              -1.3827370775010919,
              2.3581723137918633,
              2.838331012956132,
              -3.0135801554562884,
              -2.575887405327334,
              1.479763826632251,
              -7.813081973625111,
              2.5700978430274612,
              -5.006105795853306
            ]
          ],
          "size": [
            6,
            12
          ]
        },
        "weights_h_o": {
          "mathjs": "DenseMatrix",
          "data": [
            [
              -0.5217050273673888,
              3.0554060433186225,
              0.8720615387455263
            ],
            [
              3.3780572813076453,
              0.9868229927313387,
              3.1217773954534125
            ],
            [
              -5.688815911044171,
              1.7730981918110247,
              -0.9048671896062682
            ],
            [
              -5.994340364683668,
              2.7638671418350156,
              2.430343502753897
            ],
            [
              -1.350221135715461,
              -3.1501830449579957,
              -4.470890573343607
            ],
            [
              0.0997961948360133,
              -2.2390742639733587,
              3.9322333699702416
            ],
            [
              -1.926008315203433,
              -2.6201093293923274,
              -0.18305687267345622
            ],
            [
              -5.264890935221908,
              -5.981964482535796,
              3.7883975717058544
            ],
            [
              2.8041290321265335,
              -1.1569577646497355,
              -1.6379442569234806
            ],
            [
              -0.4933177896068247,
              8.469210951459699,
              8.982504890309613
            ],
            [
              -6.112455502688554,
              -2.0397175531433307,
              -3.6523528162196945
            ],
            [
              -5.405258011273193,
              3.9444760241466255,
              2.5257503609027756
            ]
          ],
          "size": [
            12,
            3
          ]
        },
        "bias_h1": {
          "mathjs": "DenseMatrix",
          "data": [
            -3.05086742235815,
            -7.69942291701258,
            -3.259142096942969,
            -2.500743826263459,
            -8.591310866920391,
            -6.275217512574412,
            -2.0326599287172438,
            -3.710199066123291,
            -4.911009000782798,
            -2.0388398957372385,
            -5.52456654178814,
            -1.999178376175241
          ],
          "size": [
            12
          ]
        },
        "bias_o": {
          "mathjs": "DenseMatrix",
          "data": [
            0.09820514150959442,
            -1.1018057121762301,
            0.8660723224721965
          ],
          "size": [
            3
          ]
        }
      },
      "inputConfig": {
        "position-x": true,
        "position-y": true,
        "velocity-x": true,
        "velocity-y": true,
        "direction": true,
        "enemy-position-x": false,
        "enemy-position-y": false,
        "enemy-velocity-x": false,
        "enemy-velocity-y": false,
        "angle-to-enemy": true,
        "projectile-position-x": false,
        "projectile-position-y": false
      },
      "botMode": "moving-y",
      "outputMode": "mapped",
      "gamemode": 3,
      "generation": 10927,
      "score": 68.05189596208855,
      "hitaccuracy": 0.34782608695652173,
      "populationsize": 100,
      "mutationrate": 0.1
    },
    "Moving-y-v2" : {
      "tankbrain": {
        "in": 6,
        "hn_1": 12,
        "on": 3,
        "weights_i_h": {
          "mathjs": "DenseMatrix",
          "data": [
            [
              -5.6974957265511685,
              -9.370861097708243,
              -4.337855334341848,
              1.9766621933844692,
              2.363953416862431,
              -0.40613370767673346,
              -1.1040690510930673,
              -2.3998202141128218,
              0.11611123371052176,
              12.653060649123852,
              1.6247614837541084,
              -1.1098446022666204
            ],
            [
              1.7015320091479769,
              -2.349533353341661,
              0.9657880056751936,
              -3.0539807279971307,
              -6.041203931834555,
              3.7417873228391487,
              -5.726169508067147,
              6.654552464769858,
              -1.2265287555125057,
              0.5699819114321637,
              -0.7482847365604647,
              0.2504636071146874
            ],
            [
              3.337778862711909,
              -1.0635369446410805,
              0.7769100175424071,
              -1.2341529212099804,
              -0.07455843413965857,
              3.2328345089031703,
              0.4626367504984217,
              5.532016638803867,
              7.306289825858899,
              -1.8341335141880735,
              -3.077794259017119,
              3.332608449424514
            ],
            [
              7.592621694230585,
              -1.893954833141982,
              -0.1972013563114326,
              1.7784274295525384,
              -1.7793754735557148,
              -1.3651673405683633,
              0.11415748446038533,
              3.014034841904735,
              9.189591046242482,
              1.049983451901223,
              -2.4923490470267864,
              -1.4450647870142324
            ],
            [
              -3.870317437750264,
              -0.060670280211512884,
              -5.185856790031727,
              -5.492528134696347,
              1.4344970291627845,
              -0.09768381715534233,
              2.708139755356186,
              1.0750184451696638,
              1.2576729491501324,
              -0.6460758899126848,
              -3.3075375863837713,
              -3.358318043089511
            ],
            [
              -4.956746274632764,
              5.368777442042733,
              -3.377332889522651,
              -0.9921492799341622,
              2.1018203367774992,
              -1.8749826877867517,
              2.6702726492432296,
              -10.884405445756286,
              -4.375344101530161,
              1.0869601455942435,
              -2.265041326445846,
              1.0535128420035749
            ]
          ],
          "size": [
            6,
            12
          ]
        },
        "weights_h_o": {
          "mathjs": "DenseMatrix",
          "data": [
            [
              -3.0890586642179723,
              2.3837263080429527,
              3.0954882728517865
            ],
            [
              -6.645028325322828,
              -4.555480524835487,
              -3.420981211841064
            ],
            [
              -1.8075998798603838,
              -0.09469946270621413,
              3.4438645587689067
            ],
            [
              -3.2448110020345196,
              -1.7468267929566343,
              4.581618618154847
            ],
            [
              2.2306363823035102,
              -3.5283628451601676,
              -0.8765044151198478
            ],
            [
              -2.007644987847302,
              -1.493854801505106,
              4.699205566438034
            ],
            [
              0.9155639229606772,
              -5.216601640510343,
              0.4000240648131351
            ],
            [
              -2.9094157986484905,
              9.650262773976023,
              2.8242213092064516
            ],
            [
              4.859140581808284,
              10.753270702086855,
              5.8387324399445495
            ],
            [
              9.345004522350491,
              1.1142023353747188,
              0.23925006246384756
            ],
            [
              2.0491172146405208,
              2.6928778402420477,
              2.0885946114621703
            ],
            [
              -1.1213211339259594,
              -1.9473209987068,
              1.7893206265546229
            ]
          ],
          "size": [
            12,
            3
          ]
        },
        "bias_h1": {
          "mathjs": "DenseMatrix",
          "data": [
            1.236934878921183,
            2.641486717001621,
            3.346963545666421,
            -0.8002449396085868,
            -1.0686503449193252,
            -4.387049320702617,
            -1.0201091246882437,
            3.6781398860908756,
            -4.2203679172072945,
            -7.942829653961166,
            -1.3089593232062955,
            -0.42923680584044127
          ],
          "size": [
            12
          ]
        },
        "bias_o": {
          "mathjs": "DenseMatrix",
          "data": [
            -1.1455038657501875,
            -3.28553404445178,
            0.6817430567160168
          ],
          "size": [
            3
          ]
        }
      },
      "inputConfig": {
        "position-x": true,
        "position-y": true,
        "velocity-x": true,
        "velocity-y": true,
        "direction": true,
        "enemy-position-x": false,
        "enemy-position-y": false,
        "enemy-velocity-x": false,
        "enemy-velocity-y": false,
        "angle-to-enemy": true,
        "projectile-position-x": false,
        "projectile-position-y": false
      },
      "botMode": "moving-y",
      "outputMode": "mapped",
      "gamemode": 3,
      "generation": 10943,
      "score": 74.38062840250215,
      "hitaccuracy": 0.43478260869565216,
      "populationsize": 100,
      "mutationrate": 0.1
    },
    "Moving-x" : {
      "tankbrain": {
        "in": 6,
        "hn_1": 12,
        "on": 3,
        "weights_i_h": {
          "mathjs": "DenseMatrix",
          "data": [
            [
              -6.1750189997362535,
              -0.7678029749709027,
              -7.09138185153486,
              -0.06622785919200623,
              -2.089771659669038,
              -3.6241281060641173,
              -2.6450582969149985,
              -1.770695137978526,
              -3.4787694914002016,
              3.1491186045221213,
              -1.6495947047569663,
              -2.3714374785030627
            ],
            [
              -4.661824245985316,
              6.728622709386391,
              1.0819039040166212,
              -4.849645583733534,
              1.1842204212251168,
              -4.592615382651491,
              -2.2862085529176364,
              -1.9085410262344658,
              -3.6547912866654393,
              3.641548275900131,
              -1.1411356451199255,
              0.3054634585403689
            ],
            [
              -2.7202001121237243,
              -1.4096254759301048,
              2.390161079804514,
              -0.19581210293447684,
              -2.164163468299681,
              4.186904344667875,
              -2.715111550804833,
              -0.9502751845639946,
              -7.658642844586032,
              -4.502318538235406,
              -3.951749089125986,
              -0.9026264613783466
            ],
            [
              2.369305490894865,
              -3.19679995610033,
              -0.20649280020834904,
              -1.8994523064646587,
              3.6173088107178675,
              2.433036452637765,
              -0.7984471423523926,
              3.501119290362636,
              -1.9847435376899303,
              1.7635967349779285,
              -5.342268927291438,
              -1.9983917686812571
            ],
            [
              -0.8526049312886957,
              -5.3373812392805595,
              -1.1102140488656096,
              -0.32776665285851775,
              1.046125721989488,
              -1.7596685447691822,
              -0.7803289326519798,
              0.44071244445891156,
              -1.8931475006154592,
              -0.024525797846245007,
              -0.6796375719559877,
              0.5177910204517983
            ],
            [
              -2.3361739758022457,
              -0.8218014996120527,
              -7.375081407728991,
              -0.3615868995492396,
              2.2963314021797028,
              2.5669629174651116,
              -4.4051968982073895,
              -1.7050708865097408,
              0.17789683899759176,
              -8.599036339258216,
              1.5178515099567957,
              -5.822683599443451
            ]
          ],
          "size": [
            6,
            12
          ]
        },
        "weights_h_o": {
          "mathjs": "DenseMatrix",
          "data": [
            [
              0.41862855375000985,
              3.757270150433993,
              1.4179015633985093
            ],
            [
              2.970728867509634,
              0.06607801139628991,
              2.5104474235672156
            ],
            [
              -6.216522133713838,
              1.9643522842194765,
              -0.3808184555215462
            ],
            [
              -7.292785368523373,
              2.690185444552485,
              2.8559218208282022
            ],
            [
              -0.13343898174850827,
              -2.538962207135189,
              -4.518165209665325
            ],
            [
              -0.4840196341604959,
              -1.791193226463054,
              3.7871428341017674
            ],
            [
              -2.859383459456069,
              -4.653428208943472,
              0.24467320807064738
            ],
            [
              -4.657713099827407,
              -6.031427716284706,
              3.2636093510649813
            ],
            [
              3.268065285196211,
              -0.4380230280893105,
              -2.2963678494889757
            ],
            [
              -0.5946109814936223,
              10.626967847273356,
              11.598741490491244
            ],
            [
              -4.37455432945114,
              -2.2543858139345265,
              -4.472950602497136
            ],
            [
              -4.314304659310291,
              3.535848432754753,
              1.1825093692512887
            ]
          ],
          "size": [
            12,
            3
          ]
        },
        "bias_h1": {
          "mathjs": "DenseMatrix",
          "data": [
            -1.7453335924267122,
            -8.640212119153029,
            -2.6379006833239416,
            -3.0419288502879462,
            -8.997641687982004,
            -5.265494125462122,
            -2.8014480990508073,
            -2.7810910258305968,
            -5.108070766768423,
            -1.9359807899978643,
            -5.575820605954219,
            -2.7842106066820316
          ],
          "size": [
            12
          ]
        },
        "bias_o": {
          "mathjs": "DenseMatrix",
          "data": [
            0.10796793485836823,
            -1.194148273843886,
            0.8810447133713318
          ],
          "size": [
            3
          ]
        }
      },
      "inputConfig": {
        "position-x": true,
        "position-y": true,
        "velocity-x": true,
        "velocity-y": true,
        "direction": true,
        "enemy-position-x": false,
        "enemy-position-y": false,
        "enemy-velocity-x": false,
        "enemy-velocity-y": false,
        "angle-to-enemy": true,
        "projectile-position-x": false,
        "projectile-position-y": false
      },
      "botMode": "moving-x",
      "outputMode": "mapped",
      "gamemode": 3,
      "generation": 591,
      "score": 69.26518019277493,
      "hitaccuracy": 0.4782608695652174,
      "populationsize": 100,
      "mutationrate": 0.1
    }
}