{
  "in": 6,
  "hn_1": 20,
  "on": 5,
  "weights_i_h": {
    "mathjs": "DenseMatrix",
    "data": [
      [
        -0.639054644497259,
        0.6560719724362074,
        1.7508082927508317,
        0.6359025449857509,
        1.1313713651241935,
        -0.18691823544865604,
        0.8935705250059298,
        0.6416336554276245,
        -0.6951684439590549,
        -0.31788894205400864,
        -0.9454339905226853,
        0.9492451689085684,
        0.6933573314408227,
        -1.133824451557992,
        -3.12166069118668,
        -0.2202917468261514,
        -0.01650674999672755,
        0.35640211231461455,
        -0.9038058106595409,
        0.5444695317488745
      ],
      [
        -0.3542632412634745,
        -0.460884028736866,
        1.5859985985822047,
        -0.9061033202757396,
        -0.6252172806984692,
        -0.6330111713685734,
        -0.2153807226994198,
        -0.16925061929300028,
        0.34681732235511464,
        -1.3421412075058223,
        0.0003232812301210558,
        -0.11838008541479775,
        0.19262275430731673,
        -0.5712158286073777,
        0.06310303118406398,
        -0.2642253902107736,
        0.7546535857575534,
        -0.20433452578702882,
        0.6675636929973887,
        -0.04674414438972754
      ],
      [
        1.2555397788251221,
        1.2755684646193408,
        1.2505266457427675,
        0.47093775948507993,
        -0.36242683202052994,
        -0.19517652835055951,
        0.6407695506555011,
        0.17183584353907042,
        -0.280306067958367,
        0.582690997591388,
        -0.4935254591150521,
        1.8504050787178143,
        -0.5953794064093513,
        0.2407063988005231,
        -0.5534852984601528,
        -0.7934768719322292,
        0.251163717791314,
        -0.0894451728861094,
        -0.916179083948021,
        -2.7665587330873045
      ],
      [
        -1.1637954819321528,
        0.34915293328711744,
        -0.9106072294140797,
        -1.3868245866022995,
        -0.31126199425375783,
        -0.646368517138426,
        0.08435675190202976,
        0.473892070152017,
        0.07133099210628328,
        -0.326903180195313,
        -0.7398087015426182,
        -1.6450431242042245,
        -0.9866869716678967,
        0.6862919553030868,
        0.9142802502396178,
        -0.2604715921628106,
        0.34033134699007567,
        -0.8413067775470207,
        -1.3855700514569858,
        1.069948640405442
      ],
      [
        -1.098592897263437,
        -0.05990974102803459,
        0.3364007487136236,
        0.3556228435209984,
        -1.186635197622429,
        -1.0458607841482264,
        -0.9126814640387726,
        -0.6902097898689153,
        1.3919215577561133,
        0.20708208834394287,
        0.42554574222868913,
        -0.5296664526467669,
        0.5274578111885752,
        0.22551811151273835,
        0.7499529204783363,
        -1.0810424849912919,
        0.7489686051329171,
        -1.3270155193257138,
        0.5762973025624971,
        0.9015662748234748
      ],
      [
        -0.9662492867217275,
        -1.1200255196380382,
        0.2985725122301888,
        -0.8268333143500972,
        -0.17551142462689784,
        -2.063287090001709,
        -1.4440057989418222,
        0.5414974530285914,
        1.2149381138989086,
        -0.664689979589362,
        -1.1323728850043377,
        0.3446636175212513,
        -0.1969293014649017,
        -0.428954117172273,
        -0.5290345994534124,
        -0.7332715427921009,
        0.26901606248834353,
        1.598899018819421,
        -1.0651125817865756,
        -2.052595732297246
      ]
    ],
    "size": [
      6,
      20
    ]
  },
  "weights_h_o": {
    "mathjs": "DenseMatrix",
    "data": [
      [
        -0.4888059244038256,
        0.17665988108600816,
        -1.418698562000166,
        -1.3487586269408958,
        0.21617313739934746
      ],
      [
        -1.0976558496877287,
        -0.4722470327051957,
        0.7187783970248118,
        -0.880717726152428,
        0.3169411578223491
      ],
      [
        -1.5500668403176396,
        -0.015969574304191478,
        -0.4700593927224585,
        -1.2794160905525118,
        0.6142820976419147
      ],
      [
        0.22103768682118372,
        1.2413643678009312,
        0.456408792056954,
        0.4185761742627935,
        0.10894914284846902
      ],
      [
        -0.9150690040710967,
        1.7212406030220604,
        0.4208769551128769,
        0.6848928928250724,
        -0.9407274425395251
      ],
      [
        -0.7462701609514557,
        0.11612225841204646,
        1.9426019096414264,
        -0.42225626623278084,
        0.3158185113819348
      ],
      [
        1.0046614535785936,
        -1.2774300441486328,
        -0.025722495591251632,
        0.6627782157360727,
        -1.086226389502222
      ],
      [
        -0.3993387084375578,
        -1.609925266729006,
        1.0463041262678887,
        -0.3649658453328315,
        0.15037644320777438
      ],
      [
        -0.25638747565009196,
        -0.46382083828516796,
        -1.0584712167610004,
        -0.25022183049264457,
        0.6669575402676265
      ],
      [
        -0.15167347558570748,
        0.11783151965141074,
        1.73513367282548,
        -0.13236949313418211,
        -0.5054459910132073
      ],
      [
        -0.8100433423029935,
        -0.3264706108385521,
        -0.521186292665327,
        1.5357759593538487,
        -0.7496303392411747
      ],
      [
        0.5766358869210517,
        -0.4344196901184918,
        0.11768144348389803,
        -1.0996424496937005,
        0.7806969874801457
      ],
      [
        -0.5521836749449567,
        -0.5021114746658543,
        1.4351753571274182,
        -0.2637934256533255,
        -0.39198911599225095
      ],
      [
        -1.2021297743463106,
        -0.025175459246900858,
        -0.4583140479498854,
        0.35545703922364097,
        -0.3136236820163317
      ],
      [
        0.1300206817794735,
        1.275574378823348,
        0.9352701963945603,
        -0.8055766635923126,
        -0.2971453712639164
      ],
      [
        0.7535043075921891,
        0.8198952285831356,
        1.9566895648206073,
        0.7146658284442379,
        -0.853212098199701
      ],
      [
        -0.6106983225300034,
        0.7887004180182648,
        0.9940124527634645,
        1.3777656760567294,
        1.0743497471037966
      ],
      [
        -0.3762573106800596,
        -0.6675689014940369,
        0.9124606335509978,
        -1.219378371959891,
        0.900233085454917
      ],
      [
        0.8206404694399942,
        -0.5029795316049922,
        -0.5353748775363555,
        0.5360386975279942,
        -0.6279267642704093
      ],
      [
        1.2966041085934537,
        -1.6454731156913578,
        -0.6345598978846805,
        -0.6795045294397594,
        -1.284623185810899
      ]
    ],
    "size": [
      20,
      5
    ]
  },
  "bias_h1": {
    "mathjs": "DenseMatrix",
    "data": [
      1.7879871588651393,
      -0.5509929101306932,
      0.7432939047330143,
      -1.515235089264729,
      -0.05592491097418373,
      -0.7739047133133297,
      -0.822099247501465,
      0.03709664388056563,
      -0.28316669341784995,
      -0.41720199486358034,
      -0.15303248877710493,
      -0.9833238137202429,
      -0.9535307265970584,
      -1.089861770885924,
      0.5276401574027285,
      0.40365166635611893,
      -0.38294651502381927,
      0.4949611231563984,
      1.4140246647603565,
      0.2304618239627845
    ],
    "size": [
      20
    ]
  },
  "bias_o": {
    "mathjs": "DenseMatrix",
    "data": [
      -0.08067037567909852,
      0.6506308297703232,
      0.6849830967849079,
      -1.0297030805078973,
      -0.14093574393677294
    ],
    "size": [
      5
    ]
  }
}
