{
  "in": 12,
  "hn_1": 20,
  "hn_2": 15,
  "on": 3,
  "weights_i_h": {
    "mathjs": "DenseMatrix",
    "data": [
      [
        -1.4176533787258434,
        1.7875081851048966,
        -0.6809572699928522,
        -0.0986609825534572,
        0.7299684267900508,
        -0.29893903734917365,
        -0.5424849102814048,
        0.2799085871620986,
        -0.2414691851394639,
        -0.38765007454613565,
        -0.3035121963816773,
        1.6390348725487618,
        1.1261076614351229,
        -0.20075337846697314,
        -1.5718897644789076,
        0.1249460659249785,
        0.08196206231691441,
        -0.7438987898721062,
        -1.135187123830402,
        -0.038167130455326145
      ],
      [
        -2.002738039342528,
        0.08876984301294973,
        -1.1271160837768268,
        -0.7865182214013916,
        1.8371267793905133,
        1.1783905975391682,
        2.3579427308292606,
        -0.5932040431894102,
        -1.0133737682959278,
        -3.3626373041609683,
        0.8792833244072583,
        -0.37071486063169734,
        -0.10906924479961126,
        -0.38692634510476087,
        -1.0419733671766023,
        -1.1390961533930883,
        -1.0294309009269713,
        -0.9718272077927106,
        -0.6194085261575276,
        4.671511618303156
      ],
      [
        1.819506659808441,
        1.6553701607408595,
        -0.08816989368896158,
        0.6276353863808951,
        2.295465760606827,
        2.594147797430586,
        -1.1775658160580862,
        -0.5036635411398169,
        -0.4262728613877844,
        -1.0200466379182846,
        0.8791286769518294,
        1.0761316710797164,
        -3.041926209439312,
        1.2792010444077808,
        -2.9234943448813295,
        1.7078278532177322,
        -0.3639006421917269,
        -0.3175972213142945,
        -1.4521838100484172,
        0.5079178679307624
      ],
      [
        0.4197259078420962,
        0.9146207595987403,
        0.6755379106479551,
        -0.44083245208267546,
        0.7098437859699964,
        -1.5269499596752392,
        0.8587953392862282,
        0.2463174856834212,
        -1.8902060509048078,
        0.8010697938824092,
        1.4872090059059189,
        -0.8009412534020468,
        -0.030524938299079624,
        -1.2634243842653101,
        -1.1991423783936712,
        -0.9392710506966644,
        -1.179623228267646,
        0.4503206507907312,
        0.5990843902916321,
        0.35604105632486005
      ],
      [
        -0.6245164185633792,
        -2.090693508105689,
        0.19278745497121624,
        2.4931390495555497,
        1.5746107174502744,
        -2.6456301952871777,
        0.9330668038245229,
        0.24066535946187362,
        3.16470910593657,
        0.0497177809897976,
        -1.6695146531096818,
        -0.46283969711216766,
        -1.5530271492298575,
        4.097535206728577,
        1.821515628117409,
        -2.6095494438685263,
        -3.8170878024865273,
        0.17827526005940306,
        1.7635147217201583,
        -0.4443790831543349
      ],
      [
        2.468249888519743,
        -2.6429559825950424,
        1.977890805013711,
        0.6292768189588352,
        1.6828295168417102,
        -0.34873502312876803,
        1.0413822106194717,
        -0.112604124665577,
        1.1042852209480165,
        0.6692187802725567,
        -1.9213980136785342,
        1.2904183789332742,
        0.5189079404822892,
        -0.04288729157709234,
        1.3025845945655357,
        1.091248848333691,
        1.2671493350089282,
        -2.088467113949481,
        -0.3985644601387392,
        0.9706165108922022
      ],
      [
        0.2990532513571216,
        0.07736182428460352,
        2.8379757379826467,
        -0.7687731435295965,
        -0.057028460185661906,
        3.3396144726734027,
        0.4342673166735332,
        -2.7925123716212794,
        -1.2622176404135574,
        -0.02949322660875814,
        1.4456858689255572,
        -1.9380660377795902,
        2.2903637607905374,
        0.6158472112492016,
        -0.319875171265506,
        -0.6321078139448506,
        -0.3639149695571147,
        3.370172560089503,
        -0.6198449897486308,
        1.0965172286397051
      ],
      [
        -0.6006622796422453,
        0.43918603494280206,
        -0.08577240157396379,
        -1.2388119201528203,
        -1.293482270066563,
        -0.955196240565217,
        1.714595235536417,
        0.9442762973781418,
        3.715905871646232,
        0.2754917978389385,
        1.4006754954477856,
        -0.6197719076374493,
        1.5687759828931478,
        -0.09848885794590428,
        -1.415229886132806,
        2.3967474421240818,
        -1.9444057821653609,
        1.7269883604795075,
        -0.5183540448860756,
        2.7751117363574775
      ],
      [
        -0.269523884782763,
        2.2145478158035203,
        -0.33403671752085273,
        -0.609379581918962,
        -2.0898441377995964,
        -1.1808434973681678,
        1.9151696416211466,
        -0.3378099059489677,
        0.7161368795722073,
        -1.317861008105302,
        0.6757856780705268,
        -2.2246740863423327,
        -1.5745299445357783,
        1.0792449077582198,
        -1.4478193351487927,
        0.6082530613260357,
        0.5047292232131596,
        -2.650594914699487,
        -2.9607549720965363,
        -1.0111573097225308
      ],
      [
        -1.1230364821160363,
        1.8112458108135225,
        -0.4469265512040692,
        1.3402388669358098,
        1.4096385031047363,
        -0.28214888517892517,
        0.6262923270541578,
        1.378862218838795,
        0.08880003514588963,
        2.639436422098839,
        1.2281884132397467,
        -0.23564765206672392,
        0.47166909122881173,
        0.23256183227716898,
        -0.6750325505390199,
        1.4892134669126804,
        -0.7581111127334728,
        -0.8330985646552478,
        1.5275682626383387,
        0.7686780453946814
      ],
      [
        1.8146769072807913,
        -1.5164978509261386,
        -0.08172058905556609,
        -0.7218715454862454,
        0.6287710377708926,
        -2.548557826846496,
        -0.2701990935367372,
        -1.2052700364250986,
        0.2399677799595483,
        -0.11464515675175069,
        0.9136207212580345,
        0.729062153826316,
        0.1435290678924419,
        -0.16186735864559634,
        -2.838732399257812,
        1.5325426471715535,
        -1.1674257900529865,
        -0.23925432737602823,
        0.6227552926305374,
        1.7908534380642467
      ],
      [
        0.060058057167295564,
        -3.581667506995951,
        -1.4759071380640567,
        -2.1285068809398595,
        1.9824364008519433,
        1.4151915447181165,
        1.9090260197895583,
        1.8804649528687465,
        -1.9009380808300205,
        1.5848201167447917,
        -1.0165992442689082,
        0.31360104651542686,
        -1.475796024061783,
        2.5547211889015893,
        -0.09206553292456238,
        0.8358882042453123,
        -3.46259943733409,
        -2.399588943798162,
        -1.9376596731543834,
        -1.6676201683016685
      ]
    ],
    "size": [
      12,
      20
    ]
  },
  "weights_h1_h2": {
    "mathjs": "DenseMatrix",
    "data": [
      [
        -1.2841321409979787,
        0.9854647134589523,
        -0.6890840098097696,
        -0.6177717653874233,
        1.1365967658627114,
        0.1564019303963296,
        -3.352834497638708,
        -0.03945122060905325,
        -1.6784163315648035,
        -0.5703592803200911,
        -1.6303192497039058,
        0.4157530429864412,
        -4.552858116503535,
        0.6310840038175052,
        0.5669068496052476
      ],
      [
        -0.44741181665916563,
        0.06254516515865308,
        -2.1586659884793242,
        1.0515831785583218,
        1.1737728631017113,
        1.5441321194478117,
        0.011813076649150211,
        0.12901860745890692,
        4.086854103038909,
        -1.609528864478291,
        2.4135417907331456,
        0.4756139560158429,
        0.2442965925054467,
        0.274958661873638,
        -0.36899863651784287
      ],
      [
        -0.5139124932221144,
        0.18182172524675005,
        1.629367161316804,
        1.2505088600868217,
        0.6862764614856679,
        0.9024299512566097,
        2.3882842670467155,
        1.6630632792307294,
        0.46291046471939434,
        -0.5285954801181947,
        -0.21194649495415518,
        -2.8081705217859048,
        -0.1065755908597236,
        -0.12845134199960984,
        0.6867910191968115
      ],
      [
        1.6948672032131156,
        1.1699132195703101,
        0.13187630170987755,
        -0.9657042424470919,
        -1.5368316569443592,
        -0.0937768673889474,
        1.0124427996409087,
        -1.5496614430667857,
        -0.7960532720119267,
        1.5665053462200667,
        0.38701071627855615,
        -2.128131808362276,
        1.6051461711074544,
        -0.9345777799897951,
        -1.1845408837959208
      ],
      [
        0.31249310932873453,
        1.3620307231471636,
        0.47650006279234974,
        2.0552748905424245,
        1.0903691033663516,
        -2.2903856019470332,
        0.417590514182227,
        2.4334365931710207,
        -0.3845975264688606,
        0.13789621331684365,
        0.9071989592589553,
        -2.4111984900077283,
        1.1251265699816393,
        -1.0051853271752702,
        -2.2217217890938845
      ],
      [
        -0.07748754141322522,
        -0.9324894796685547,
        1.2917752693717264,
        1.5795089822080186,
        -0.05287583773984045,
        0.7296295312364746,
        -0.37333127728288407,
        1.3660556896579212,
        -0.26642552888608273,
        -0.4032050193937554,
        1.3861165692048902,
        -0.057294496565242214,
        -0.4986666309343142,
        -1.7896761332042854,
        1.8393196406281738
      ],
      [
        -0.9702690070948188,
        0.8643940831926084,
        1.4791803658698424,
        0.14539172470036688,
        0.15315578842052488,
        -3.772272903818373,
        -1.5024215368410885,
        2.0634662683020024,
        3.062102577958793,
        0.7638453303408913,
        1.2164098778812604,
        -0.866726793556061,
        1.0612689070409866,
        -5.725565382855658,
        1.1839111350499454
      ],
      [
        0.2815983580006035,
        -0.48994649811155566,
        -0.8910921387534341,
        -0.6154149011047343,
        -0.8775921283132717,
        -0.8321474729013504,
        0.12068364123050629,
        -3.3447437402141085,
        -3.4717801678044884,
        -0.14214293083928894,
        1.079900152997523,
        0.9118420572805281,
        0.382688249342776,
        0.4339631206091866,
        1.3484637558031083
      ],
      [
        -3.9067015381477996,
        -0.7289677845302525,
        -2.1919757375370117,
        0.12941235209705235,
        2.3805924680464057,
        1.4691257357812524,
        0.5753620769294864,
        -0.18291844135641078,
        -0.5585303816141253,
        -1.232440840655842,
        2.190027330311186,
        1.2781419188251584,
        -0.9972149352894671,
        -0.23985507755062876,
        -2.863399152146477
      ],
      [
        1.5782954989312479,
        2.390185462713467,
        -0.9243225259283462,
        -0.1444942707895836,
        2.3393445038281815,
        -0.7213634354351095,
        -2.8358890551877254,
        -2.4851517416391298,
        -1.3353305678561267,
        -0.32028723827569855,
        -1.587817125738419,
        0.0619634218681349,
        -0.6516386698468011,
        0.5239060836007142,
        -0.20775252191441934
      ],
      [
        0.5350201116283186,
        -0.152045097635989,
        -0.13004786765639503,
        0.5792976972456124,
        1.8855344204725066,
        0.4768640554401129,
        -1.230633667005953,
        -1.1206552164465962,
        -0.42744588004970535,
        0.6016385903005083,
        -3.5082394326302038,
        1.5004465974778118,
        -0.11811331413527136,
        -0.1779219204698288,
        1.6247853884241297
      ],
      [
        -0.4599732416400609,
        1.0845621873803188,
        1.5467622689142606,
        1.1617105659042122,
        1.00859604262082,
        2.3082325374597126,
        1.3523017830065345,
        -1.415731508468531,
        -0.16705424046824313,
        -1.763510313492861,
        0.5137141733559496,
        1.9655696416820183,
        -0.2524589727651488,
        1.2223651199229526,
        0.3802960844136136
      ],
      [
        0.21540533317666172,
        0.777862994620444,
        -3.368353164626094,
        -1.5404865385400666,
        1.9940363638685166,
        -0.01575891881249448,
        -1.484235589587002,
        -3.648064133094174,
        0.7508764357476887,
        -0.7069754232465943,
        -2.092797948866813,
        0.9128329431987824,
        0.20263741597103535,
        0.024284716035006287,
        1.42825782554208
      ],
      [
        -0.31877265130238047,
        0.3276086513427479,
        2.113785170177839,
        1.9733457514592887,
        0.25402209887349625,
        -3.546868294385966,
        -0.6968536055291981,
        -0.9399488890870559,
        -2.3722848822353675,
        0.907594360304141,
        -1.6164709564089417,
        0.8207228500841133,
        -0.9137715773728335,
        0.2369520060142474,
        -1.0513647206907628
      ],
      [
        -1.4296329793844196,
        -2.5083849754589984,
        0.9161338831383041,
        0.09283003149320575,
        -2.5434481974265704,
        1.1072782931575014,
        -0.3008026384354823,
        -1.7847311526757395,
        0.09290622456271234,
        -0.8571054375493146,
        2.3659581297556884,
        -1.4471804623138964,
        -1.6077480587394788,
        1.6126116328822697,
        -2.476082998188677
      ],
      [
        -2.091772134603104,
        -2.0196339571284074,
        -0.31018345584764334,
        -3.182821388428426,
        -1.6994284890485696,
        -0.5737041587023541,
        -3.3697037327769213,
        -1.4340894591414213,
        -1.1812521513717538,
        -0.2019353532142566,
        1.4266450846252774,
        -1.249008497043873,
        -1.1501670243839666,
        -2.15202447335556,
        -0.5452798616750844
      ],
      [
        2.2701508924063694,
        -1.8581326177392565,
        0.6667601183286354,
        -2.482387567547661,
        1.6557025170859374,
        5.127499475737872,
        -2.730243606614674,
        -0.8531746436943207,
        0.2817579999178379,
        -0.6944348233447943,
        1.1013221165366611,
        0.5637014459572225,
        -0.3541443656696183,
        1.6074789912795127,
        -1.3823760620145946
      ],
      [
        2.623928985939293,
        -2.7188355586130584,
        4.465623349119155,
        -1.9932560080973698,
        2.952229006979927,
        -0.08611127795555283,
        -0.7574321227659555,
        -1.3805734442476125,
        -1.6294948596946817,
        1.8518272084632854,
        -0.08348913599374841,
        -0.33345730154760556,
        -1.5800899393762056,
        -0.20735176636057262,
        3.1969959899060054
      ],
      [
        1.2296308222020278,
        1.6023515549038323,
        -0.37743342690111314,
        0.5154977331284033,
        1.6225677770221572,
        1.4562285857223516,
        0.7458182017473969,
        -1.3817007659133194,
        -0.5257544684161122,
        -0.6307807044828276,
        -0.28349978365172046,
        -0.8274580411537511,
        0.023467483611813084,
        -0.2202137300218453,
        0.13247518382603232
      ],
      [
        0.7773158366753459,
        -0.4639048913024905,
        -1.0766415692283113,
        -0.11991752246088115,
        -1.260027886709337,
        0.8897381764258794,
        1.9819536321198776,
        0.9218739514679337,
        0.28968968613053203,
        -0.08256289443406296,
        -0.22323578286212592,
        -0.9238895175173303,
        -0.1915290267295896,
        0.4168170874014524,
        0.3343904587556501
      ]
    ],
    "size": [
      20,
      15
    ]
  },
  "weights_h_o": {
    "mathjs": "DenseMatrix",
    "data": [
      [
        1.5333030265565257,
        0.1959893644851573,
        1.3315683218590713
      ],
      [
        3.506102453845986,
        -0.3282581178565136,
        -0.5768544191376317
      ],
      [
        0.42574130224567186,
        -1.021057761118102,
        -0.29880485976820637
      ],
      [
        0.3651270735949758,
        -0.9789197190925895,
        2.0558131543784133
      ],
      [
        -5.015694395586269,
        -1.534385686966582,
        0.6762941706392563
      ],
      [
        -0.8453957913312722,
        1.4896746395648872,
        2.479456299786603
      ],
      [
        -0.744760089651562,
        0.7957084056419991,
        -1.8257318651328787
      ],
      [
        -1.0423036922595483,
        -0.6000578537410621,
        1.3435863802979118
      ],
      [
        -1.0539217581022833,
        -0.7102123792794269,
        1.398796540402018
      ],
      [
        -3.1302042346723207,
        1.3377382419005752,
        0.5256579239707413
      ],
      [
        -0.9642556220521707,
        -0.8018921985863166,
        0.3198925984459725
      ],
      [
        -0.42401214712225027,
        -0.9983400805887103,
        1.5650498470409266
      ],
      [
        -0.7431531858275171,
        -0.4852198590549285,
        -0.022767029437471678
      ],
      [
        -0.36487275618435644,
        1.2669921941348503,
        2.5321159231487944
      ],
      [
        -1.3314643384109892,
        1.6655627380789428,
        1.2348180764399757
      ]
    ],
    "size": [
      15,
      3
    ]
  },
  "bias_h1": {
    "mathjs": "DenseMatrix",
    "data": [
      -0.549463456857668,
      0.6723167589660506,
      -1.5639356999831244,
      -1.696273031017044,
      0.44533028150721643,
      0.9057562427146534,
      0.6710034454315744,
      -1.1415694863049792,
      -2.8295694797679007,
      3.735765395293329,
      -0.1100419180944859,
      0.20518510135350776,
      0.4736523966111376,
      0.6956252256164137,
      0.627844243994425,
      0.40971101008346805,
      -1.612272154734773,
      -1.824702268600369,
      -1.114788497413289,
      -0.7340938952825304
    ],
    "size": [
      20
    ]
  },
  "bias_h2": {
    "mathjs": "DenseMatrix",
    "data": [
      3.511102790927714,
      0.43835022076211155,
      -2.7868922686134634,
      -0.33888248090399314,
      1.9169974942706807,
      1.1516150284008209,
      0.354732252728468,
      -0.8779663283099302,
      0.0130819982488731,
      0.19239043855167454,
      -1.9859795251776196,
      -3.7362924103670685,
      -2.6598675466171002,
      -0.7156480521559798,
      -0.26869845697068306
    ],
    "size": [
      15
    ]
  },
  "bias_o": {
    "mathjs": "DenseMatrix",
    "data": [
      -2.4680525549054253,
      -0.2915852714721119,
      3.2930847227660465
    ],
    "size": [
      3
    ]
  }
}
