{
  "tankbrain": {
    "in": 12,
    "hn_1": 20,
    "hn_2": 15,
    "on": 3,
    "weights_i_h": {
      "mathjs": "DenseMatrix",
      "data": [
        [
          0.2151154697499238,
          -0.580633026819334,
          0.5909756247841962,
          -0.9942179412390542,
          -0.5367423379729979,
          0.7471403142036348,
          -0.0621951188109543,
          0.8510543601349854,
          -0.6619591364578669,
          0.9200803837465144,
          0.8712017593678041,
          0.2801268263539989,
          -0.7342888485040799,
          -0.08978449585688242,
          -0.7778628701654684,
          0.9191031195335124,
          0.28881095147339453,
          -0.8140518166431328,
          0.3079881752947895,
          -0.8475893159280429
        ],
        [
          0.3694813196279514,
          -0.8151438123038166,
          -0.81154749019982,
          -0.20379035896061193,
          0.7530877838350516,
          0.832540175629608,
          -0.9038517543094029,
          0.6166800589604664,
          -0.5548268682741593,
          0.37211892857210915,
          -0.03255512315227993,
          -0.41491211136750983,
          -0.15372013076713797,
          0.8058926347230999,
          -0.9041605146338113,
          0.25440953704298463,
          -0.6405331644110832,
          0.8852952458084768,
          0.4532752499881476,
          -0.6334630207261708
        ],
        [
          -0.0916066642730583,
          0.953196493707088,
          0.7322524432036106,
          0.40351362291489257,
          -0.9838414988688344,
          -0.6382291983360663,
          -0.13845070439549323,
          0.6720898373629671,
          0.7029065220653969,
          0.5102459878368,
          0.872048096851417,
          -0.5969210669780844,
          -0.43989868222336104,
          0.40123025230383313,
          -0.7919226587830819,
          -0.046201785379693217,
          -0.9662313531821606,
          -0.7313037735727975,
          -0.14335090773098846,
          -0.0732913169244902
        ],
        [
          -0.727628046582675,
          -0.3462466851468178,
          0.09704124964947547,
          -0.331480791708368,
          0.25370383988148815,
          0.3080770545482139,
          0.0553604669077572,
          -0.5410022322709055,
          -0.9988701126912122,
          0.625087541353559,
          0.963512633640037,
          0.6968615510264049,
          0.11311770105452679,
          0.7555670663016478,
          -0.4955655680399841,
          -0.48843738560743233,
          0.4906228666081778,
          0.7106213028895283,
          -0.7153550332883734,
          0.9468098189378422
        ],
        [
          -0.31479157352111553,
          0.9958217553336102,
          -0.8587818658247907,
          -0.013379628249062803,
          0.5733997125868655,
          -0.846314001657774,
          -0.02837642597094181,
          0.327634291645426,
          -0.7465155546320511,
          0.18093445376110884,
          0.9248305710380098,
          -0.5925994652129749,
          0.593310776169313,
          -0.4189678663892923,
          0.9347666552972635,
          -0.6194399606065544,
          -0.21432103541320624,
          -0.7102002027433996,
          0.9725929556113317,
          -0.7279210210069007
        ],
        [
          0.19243667346548698,
          -0.2408829953670243,
          -0.16196751075803317,
          0.12491486152749864,
          0.9751001128046182,
          -0.9193019928097144,
          -0.4971290168011593,
          -0.9603859714775497,
          -0.736244414092454,
          0.8605716549763458,
          -0.45622696365396354,
          -0.21199094616259428,
          0.9570759276965668,
          -0.13005216909686512,
          -0.4371157384778208,
          -0.19764254775403667,
          0.3865075459341023,
          0.025054678724439228,
          0.5305672662304892,
          0.9176123561163996
        ],
        [
          -0.8168750328790157,
          0.05737387847725772,
          -0.6292328263462783,
          -0.15973389473371769,
          0.7601786471939842,
          0.5315238592053837,
          0.8480870241229574,
          -0.18445475270006007,
          -0.3500102500273995,
          -0.0567873285536189,
          -0.10917366394582118,
          -0.7176285140306882,
          -0.938090662757059,
          0.5637869567349387,
          -0.5250833056983646,
          0.4708997209483168,
          -0.08993477467069455,
          0.590884165249506,
          -0.023152736170551802,
          -0.288198615783245
        ],
        [
          -0.04191782773505326,
          0.2883990862851318,
          0.2096858853463901,
          -0.17377008011076922,
          -0.6744530216794871,
          0.8406848277820662,
          -0.9792990868908223,
          0.16663832333492556,
          -0.014256151271030748,
          -0.3015749096755298,
          -0.32379390323200974,
          0.2163065874037775,
          0.20327798354808024,
          0.7163202316710833,
          0.9458866567114719,
          -0.7836147868465502,
          -0.418903451304072,
          0.35542282217575827,
          0.5149246210193348,
          -0.4753273048978396
        ],
        [
          -0.026827932250783615,
          -0.7483836413837024,
          -0.45564736767311,
          0.556664459802424,
          0.28290563807586433,
          0.2971903941424878,
          -0.38023735552541205,
          0.9046693717486871,
          -0.11510792967940586,
          0.5787663767700935,
          -0.33956458197068506,
          0.9296437471246397,
          -0.9137788389647572,
          -0.10963067728723741,
          0.6111795296937472,
          -0.2943901368125431,
          -0.8360225630916581,
          0.7714702233694217,
          0.20972465350778013,
          0.45082059808169994
        ],
        [
          -0.6887179545365991,
          -0.5883219291751574,
          0.8563650938770213,
          -0.9512293790538073,
          0.8027109612936763,
          0.3307306723899528,
          0.850515479442852,
          0.5376183196092916,
          -0.2052955353113648,
          0.955728753596788,
          0.7328319652155479,
          0.005127912467167262,
          0.45573685138393993,
          0.8969213521290449,
          0.594165356634617,
          0.6600265124456146,
          0.8176036977953487,
          -0.39812073081860155,
          0.9171293699084118,
          -0.2762702697788899
        ],
        [
          -0.8864729789598236,
          0.3080611954071222,
          -0.17333944291059178,
          -0.1803288527084963,
          -0.8603825867815676,
          0.7929672833094636,
          -0.6610958947584464,
          0.4818530376428396,
          -0.8828195660526962,
          -0.17319659390320408,
          0.36111540631674544,
          -0.8414226645581716,
          -0.07950735447104273,
          -0.37395385271545944,
          0.612178379258395,
          0.49900059183775314,
          0.7377312009027057,
          -0.30239821845404447,
          0.8161503618135746,
          0.05785797080695376
        ],
        [
          -0.6103283065470558,
          -0.38025544393780286,
          0.9329803232757645,
          -0.2989422688524759,
          0.5420066462714375,
          -0.7165632289459325,
          0.4379005532610327,
          -0.16954389748973253,
          0.05098265176598926,
          -0.9881433392720991,
          0.005562606772259393,
          -0.4160116797838821,
          0.6067351037862256,
          -0.08538975474615407,
          0.4646802090469433,
          -0.38874777986821374,
          0.3659116248713057,
          0.06620539909608558,
          -0.19363301403980793,
          0.1766134052929822
        ]
      ],
      "size": [
        12,
        20
      ]
    },
    "weights_h1_h2": {
      "mathjs": "DenseMatrix",
      "data": [
        [
          0.21915632682762554,
          0.6726926553275334,
          0.7078030833031614,
          -0.8989366730810698,
          -0.14738240148758885,
          0.06764895442672336,
          0.1556861764993469,
          -0.330891079921514,
          0.530615069279295,
          -0.8325033835207151,
          -0.21586470509944355,
          0.4412547365918129,
          0.8870336134218153,
          -0.49450724744987196,
          0.5069299550364428
        ],
        [
          -0.9804429163643271,
          -0.8224442689059465,
          -0.05956444526281579,
          -0.27363097040136086,
          -0.696439623496588,
          0.6903464525352359,
          -0.49246795605931304,
          0.566876415314298,
          0.3389037805266828,
          0.6690325235594072,
          0.46085438914176313,
          -0.572129167782394,
          0.9434811099325917,
          0.07303192693691951,
          0.23217442280700773
        ],
        [
          0.9548252379571636,
          -0.12022818236135968,
          -0.21528215333607703,
          0.5656197244881938,
          0.29747467909152014,
          -0.5071243546058717,
          -0.9740287918245338,
          -0.8485514253100352,
          0.4542945121413746,
          -0.5489284891162288,
          -0.7673250094460059,
          0.392815372168172,
          0.611098839101837,
          0.3214989652957376,
          0.7812246948168597
        ],
        [
          -0.9252010504471384,
          -0.6054832680576623,
          0.03838504187478331,
          0.7899666337042635,
          0.5464717857218084,
          -0.7856944527922824,
          -0.781259877012407,
          -0.5225641269204246,
          0.15072878548564694,
          -0.5547928501060194,
          -0.35357819323047357,
          0.6727273282287081,
          0.42119484417857156,
          -0.9590109725719215,
          0.47674334238877725
        ],
        [
          0.8939699406496722,
          0.4262859309841942,
          0.8313055407953736,
          -0.03015845188752253,
          0.9644232060278737,
          -0.9254194559085623,
          0.7500651185415879,
          0.4001871986352987,
          0.6148873870066878,
          -0.2721079216820754,
          -0.1676502209808438,
          0.8248446644368661,
          0.06158562432165482,
          0.9276639611981765,
          -0.30923872993191615
        ],
        [
          0.13212101997494408,
          0.7395600240442091,
          0.1770829257121629,
          0.5950414868520717,
          -0.8094103925513654,
          0.1426781414416305,
          0.4169609214188821,
          0.6387613585460101,
          0.8423418499529944,
          0.5132227295973677,
          -0.9271062988451899,
          -0.2951099430165045,
          0.779842195462843,
          0.017357383582275343,
          -0.9090971958452579
        ],
        [
          -0.45614062399521427,
          0.6746618662919686,
          -0.4007524950024216,
          -0.13820733570649124,
          0.8699602466990908,
          -0.43432759118944253,
          -0.9998543251188396,
          -0.19502210783702334,
          0.9373325908667578,
          -0.5386109771912173,
          -0.06631489745471586,
          0.14413547776357438,
          0.6658680273488571,
          0.8926855737013037,
          -0.7627316805913108
        ],
        [
          -0.3809907150070936,
          -0.7021157183379685,
          0.11517176899666803,
          0.487876247818092,
          0.22621975019092133,
          0.6873516664877233,
          0.22044418828703116,
          -0.5945415238186419,
          -0.7481129473498997,
          0.31428556251976514,
          -0.3282035852945705,
          -0.9222448971996237,
          -0.1022378705115069,
          0.677371369311397,
          0.07152153048463483
        ],
        [
          0.1520116888560108,
          0.9847835215359206,
          0.18174273436553512,
          -0.2743717052959439,
          -0.583778129146723,
          -0.7530896322204741,
          -0.04052333198087321,
          -0.738922164498731,
          -0.3257327265965495,
          0.472424845404837,
          0.9401904068197502,
          0.13776594349803784,
          0.0623554019976118,
          -0.7372945329356824,
          -0.6114386378722219
        ],
        [
          0.5656087207144329,
          -0.6995435455538295,
          0.8664210233094376,
          -0.390857752144564,
          -0.5934383681785602,
          0.0206098143984208,
          0.7445663960960782,
          -0.417220981934741,
          -0.7207989186432171,
          -0.5822754965063417,
          -0.7329349766752242,
          0.914488727208328,
          0.4031496914577344,
          -0.14472476010962476,
          -0.8634313771785455
        ],
        [
          -0.34451271146823115,
          -0.06552061908094398,
          -0.27521091565370737,
          0.7426131637688873,
          0.7267888288874444,
          0.8997995602600428,
          0.7268192238302205,
          -0.8658195702181097,
          -0.3846019465439253,
          0.4451611734660097,
          0.8099975289376089,
          0.5471697015258536,
          -0.8866694771896272,
          0.918939991667538,
          0.26457716846464563
        ],
        [
          0.41363461930445666,
          0.6042799750553656,
          0.5174840518675066,
          0.7923114251424117,
          0.9765095571911586,
          -0.32960650102974676,
          0.36496280728590436,
          -0.2746404861160897,
          0.7373431650682927,
          0.6504745127923506,
          0.478236449608765,
          -0.05374003155867624,
          0.7409026458802677,
          -0.6998336434954313,
          -0.18062085879514012
        ],
        [
          -0.9913776203493868,
          0.31547397747353023,
          -0.04108446312923153,
          -0.42581553588599974,
          -0.92443176944777,
          -0.8676447922082113,
          0.03598206476930521,
          -0.8057616044289699,
          0.2812467403599779,
          -0.027838960410528024,
          0.8968153372721255,
          -0.667698648966307,
          0.27977257660524457,
          -0.6105042476632077,
          0.5130620905852941
        ],
        [
          -0.17545538779415815,
          0.9211068706390113,
          0.17256871201923207,
          -0.9577843241725642,
          0.6407288309948773,
          0.3360953188034732,
          0.4749693584795638,
          -0.37230104830684585,
          -0.09571189924926393,
          0.6817930436814903,
          -0.02017132714895087,
          -0.4908449327202087,
          -0.15482184449710223,
          0.6457642174826512,
          0.8940321081510603
        ],
        [
          -0.3754076153745257,
          -0.352717675167452,
          -0.8747038024667726,
          -0.20649324734662322,
          0.1380805825706588,
          -0.6061322099020359,
          0.004860648784547061,
          -0.03647004836877865,
          0.5814510480713939,
          0.8295700586895924,
          -0.9160302542327518,
          0.0014472182722453653,
          0.8088455908912024,
          0.866484216161302,
          0.5572149020101604
        ],
        [
          0.8177667322737652,
          -0.2287316954698958,
          0.45138109962684436,
          -0.9590801708879849,
          -0.7388910651836683,
          -0.37581258208869894,
          -0.7966447450862966,
          0.7590353592147356,
          -0.5741642463157118,
          0.13029186410498705,
          0.25186346681667837,
          -0.9658268573937445,
          -0.35433976548958557,
          -0.5536225262525332,
          -0.2423596569239369
        ],
        [
          -0.862075913664815,
          -0.4645001878116488,
          -0.025462649230514667,
          0.1296130564682474,
          -0.7424216209518251,
          -0.6432634313588826,
          0.023783924794300804,
          -0.23684245502294543,
          0.7292899541999793,
          0.20286046269791314,
          0.5933929159146767,
          0.32420167513308473,
          -0.48325087892443586,
          -0.058159385767337035,
          -0.4344971789194698
        ],
        [
          -0.7540785910826765,
          0.9461043753405249,
          0.3951628878274376,
          0.44127455750821576,
          0.675407783968121,
          -0.3581870916325455,
          -0.6371757301596125,
          -0.06435104503606903,
          0.2100759534963994,
          -0.023279537042410703,
          0.6426641497351109,
          -0.6816331179571239,
          0.5007086965184389,
          0.661834476680506,
          0.14976087143963213
        ],
        [
          0.19885047755190643,
          -0.5757095923083324,
          -0.46093497391441207,
          0.7027157473212831,
          0.9833247322042633,
          0.33075825840202544,
          0.981639304794669,
          0.351865110621322,
          -0.6166128053881726,
          -0.07578011759987746,
          0.5142057678939929,
          0.288496994804033,
          0.7943542280928051,
          0.18308988984897034,
          -0.6319981349123498
        ],
        [
          -0.09098147541851709,
          0.4819678978897446,
          -0.814456133696325,
          0.13880969614659788,
          -0.7596428178708966,
          0.8276219401321419,
          0.534507842899564,
          0.10151373107170891,
          0.30269485757205894,
          0.026616705702942056,
          0.8681386650453182,
          0.342171916555037,
          -0.9886712701493899,
          0.3124127518142821,
          0.091204885311583
        ]
      ],
      "size": [
        20,
        15
      ]
    },
    "weights_h_o": {
      "mathjs": "DenseMatrix",
      "data": [
        [
          0.149915694644291,
          -0.9343592112163184,
          0.3019293534870138
        ],
        [
          0.4983232270814475,
          -0.6411835853120416,
          0.24555295183065784
        ],
        [
          0.45386355856532035,
          -0.9577616543091017,
          -0.48670442616042586
        ],
        [
          0.9405406421420999,
          -0.5682977679822183,
          -0.08805815880546985
        ],
        [
          0.6548907010913874,
          -0.01775605085061993,
          -0.012258107929081663
        ],
        [
          -0.7662776036780058,
          0.25993087776500445,
          -0.6717699067395
        ],
        [
          0.618468570294211,
          0.9954602345860313,
          -0.6556200657383491
        ],
        [
          0.05105690543176311,
          -0.44010514115719757,
          -0.7019044091855998
        ],
        [
          -0.6739833845026979,
          0.8727455192924667,
          -0.2019376881366306
        ],
        [
          -0.09134757738785426,
          -0.9770578870158684,
          0.049033345723000554
        ],
        [
          -0.7176331172218491,
          0.12134334621840215,
          -0.08256491134052601
        ],
        [
          -0.8990513268736805,
          0.30112801140038536,
          -0.4868804433040238
        ],
        [
          -0.8901333128017264,
          0.5232486715788867,
          0.8743827053901441
        ],
        [
          0.8458431998457341,
          -0.9694786795398812,
          -0.23437371303063226
        ],
        [
          0.4338592853541028,
          -0.36999394507204075,
          0.49791465458295536
        ]
      ],
      "size": [
        15,
        3
      ]
    },
    "bias_h1": {
      "mathjs": "DenseMatrix",
      "data": [
        0.13688497258320442,
        0.2711920941033781,
        0.7206527951896142,
        -0.04294503544629502,
        -0.381596056065838,
        -0.8119917860164808,
        -0.5412060068791029,
        -0.7222136611835259,
        -0.15563111425340692,
        0.8570900710552747,
        -0.6526365907798841,
        -0.27515932814980215,
        0.29976779068518344,
        0.4957832163308764,
        -0.7850524404976349,
        0.5655851971100581,
        0.3488090945109794,
        -0.37141400838991523,
        0.25209372192134727,
        -0.194614337552519
      ],
      "size": [
        20
      ]
    },
    "bias_h2": {
      "mathjs": "DenseMatrix",
      "data": [
        0.8013730101105649,
        -0.5991768978233818,
        -0.9107880131904436,
        -0.36217409272184864,
        0.4376883496554773,
        0.3016214615758772,
        -0.9780879617918945,
        -0.36059744228779733,
        -0.4232090639670557,
        -0.1599777989944986,
        -0.797528984707377,
        -0.023234474143830175,
        0.4274867959140842,
        -0.9281665867708558,
        -0.986286133856592
      ],
      "size": [
        15
      ]
    },
    "bias_o": {
      "mathjs": "DenseMatrix",
      "data": [
        -0.6086009682836849,
        -0.6666177402377139,
        0.8730910183922798
      ],
      "size": [
        3
      ]
    }
  }
}
