{
  "in": 10,
  "hn_1": 15,
  "on": 3,
  "weights_i_h": {
    "mathjs": "DenseMatrix",
    "data": [
      [
        0.878593717261266,
        -0.599124991195574,
        3.7776910753418864,
        -0.5845828477387756,
        1.3155425585667948,
        2.2261024063748005,
        0.8555071530994458,
        1.1931316486614154,
        -0.7418846921848282,
        0.14078097221548297,
        -0.9253951900805423,
        -0.1567951525608879,
        1.103450212128292,
        0.008215813631773226,
        0.3401179592206198
      ],
      [
        0.9414795985308003,
        -0.3446224456890012,
        -0.3475597806673149,
        2.370238224077238,
        -1.4099815009107064,
        2.425836357510347,
        -3.012584006097993,
        0.13932346329088144,
        -0.5159679372957539,
        2.5026705162397076,
        -1.8782790096002577,
        1.9499445123264048,
        -0.5716141741415863,
        0.687494388906237,
        -3.868239715883811
      ],
      [
        -2.463499386783633,
        -2.772961629547036,
        -2.2272342475835356,
        1.837543236643375,
        0.8355044265204072,
        -0.43441849482967515,
        -0.06672920510682565,
        -0.050933143766597355,
        -1.600844291172949,
        1.2689507385026362,
        0.9891512221747246,
        -3.425485426940198,
        -0.8485486323979685,
        2.0762059001302338,
        2.9836264679180906
      ],
      [
        -2.081908143284825,
        -0.41699720065493534,
        1.4718976336783958,
        -2.725998956719261,
        -2.5134936393387637,
        -1.3438017005150442,
        -1.923464202302141,
        0.1909853668234563,
        -0.15639930257578263,
        0.23697345515704815,
        -1.450269517848754,
        0.37882200471251115,
        2.5788860583779267,
        -1.3326267590073444,
        -0.5333600740319295
      ],
      [
        -1.193120875182736,
        -0.3550525802241886,
        0.4218538137433926,
        -1.157873331099458,
        -2.4018101615450966,
        -0.8266594679137834,
        1.0527157077634555,
        0.9063958202901559,
        -0.2249311748614125,
        -4.806011562978208,
        0.5964482819742782,
        -1.7606453821114683,
        1.8252487186109327,
        -1.3508928853200417,
        -1.293385583387734
      ],
      [
        0.19983678757234488,
        0.7757148909050192,
        0.2738695347992315,
        0.6325897837434146,
        -1.5166432747584389,
        1.1139997252556626,
        -1.5732645210998275,
        0.27437154860100793,
        -0.5385716747950827,
        -0.5758978925102805,
        1.3767145462033497,
        -0.5924327458091031,
        -3.712537559335504,
        -0.07565366950024607,
        0.02318350670386271
      ],
      [
        1.4699701477481828,
        0.7979478303657709,
        0.6959200304237376,
        1.3181136868410657,
        -2.052703253529968,
        -0.06195039995901372,
        -2.470918338015062,
        1.9532483563430991,
        0.15836334612799596,
        1.0688775526748675,
        0.32081576671266465,
        -1.0516306506939932,
        0.34065317826095703,
        -3.0702475467759704,
        1.8316013639750521
      ],
      [
        0.4512279421532026,
        -0.20155107017995497,
        -1.355577343645077,
        -0.308847383768688,
        -1.4473641436491635,
        1.2878077512390846,
        -0.8410315318742153,
        -0.6088945792921762,
        0.2420974966363324,
        1.776355448374305,
        0.1455756930250465,
        0.10539939638222738,
        0.5064952705356149,
        -2.343950899036773,
        -0.627457340683073
      ],
      [
        1.5353958000076315,
        0.8049576180722505,
        -2.198720130629089,
        -1.0364120501296994,
        1.6715225604970125,
        1.8543604823703963,
        0.021948809349246128,
        -0.4936191413851503,
        -1.0064513111789195,
        -0.06044826898841179,
        1.0649004136826437,
        1.7040667178287825,
        -1.796179269770151,
        2.407258236114278,
        2.401775461053522
      ],
      [
        0.921985846973192,
        2.5273259301520548,
        -0.23082294087476982,
        0.029197275063667122,
        -2.358401980410612,
        -1.6888706534286333,
        -1.6475717095764815,
        0.7292827828852368,
        1.5911063624641466,
        -1.3716410291494592,
        3.6922001286332717,
        -1.258668986800519,
        -0.5624340636773117,
        0.47019427713437223,
        -2.1355722575098723
      ]
    ],
    "size": [
      10,
      15
    ]
  },
  "weights_h_o": {
    "mathjs": "DenseMatrix",
    "data": [
      [
        -0.8620860634117821,
        -0.21897062527871008,
        -0.8593548475966801
      ],
      [
        -1.0235353372011409,
        -1.6616373352632152,
        -0.12130675548469155
      ],
      [
        0.16172577022575846,
        0.13193694775161213,
        0.597827518940956
      ],
      [
        0.6706198610037293,
        1.5806092929328672,
        1.3609791889319711
      ],
      [
        -0.8767810779266957,
        1.9105569500497714,
        -1.7040642385623304
      ],
      [
        -1.786498235712415,
        1.132149652980813,
        1.5624471360893337
      ],
      [
        -2.019544738958583,
        0.4985876034942144,
        1.5247387666713013
      ],
      [
        1.6312840772930561,
        0.517610494203516,
        1.213663945137234
      ],
      [
        -1.4078936792364296,
        -0.9216613287964689,
        -0.24834969360153977
      ],
      [
        -1.9266463389796145,
        0.8568089696481849,
        -1.5238322743698727
      ],
      [
        1.6977175392362835,
        -1.2283472924509629,
        1.046480830147315
      ],
      [
        -0.45393654771056163,
        0.4701201042500255,
        0.7805103011983383
      ],
      [
        -0.56282614603735,
        -1.5898385698656563,
        -0.5494464842650251
      ],
      [
        0.21319585491838738,
        -0.510825708722584,
        1.874633394252116
      ],
      [
        0.6111376042346808,
        0.9535214868042373,
        -3.071112965903487
      ]
    ],
    "size": [
      15,
      3
    ]
  },
  "bias_h1": {
    "mathjs": "DenseMatrix",
    "data": [
      1.343709101813116,
      -0.07235403152351713,
      1.4783559647964812,
      1.3246614759316915,
      -0.18999912901515473,
      -2.4132724275101936,
      -0.48851334223149606,
      -1.5326129640752417,
      -0.4175291308293338,
      -1.6576333248381352,
      0.549862546912872,
      2.656444265056643,
      -0.20078647459250348,
      1.322850715981325,
      -0.6514962455509133
    ],
    "size": [
      15
    ]
  },
  "bias_o": {
    "mathjs": "DenseMatrix",
    "data": [
      -0.1984259628368558,
      -0.13169159291255333,
      0.8738444744020976
    ],
    "size": [
      3
    ]
  }
}
