{
  "tankbrain": {
    "in": 12,
    "hn_1": 20,
    "hn_2": 15,
    "on": 3,
    "weights_i_h": {
      "mathjs": "DenseMatrix",
      "data": [
        [
          -0.7184374766846926,
          0.8511447326455299,
          -0.13908270196352868,
          -0.29336058515245944,
          0.25513944939213085,
          0.885129882462627,
          0.5763984253544991,
          0.6938016152936282,
          0.5730844292091832,
          -0.32698588454514854,
          -0.5184661943013483,
          0.2240851789738012,
          -0.23379493673852159,
          0.9027573931922719,
          -0.8609513333127881,
          -0.13170672656275062,
          -0.805075082547264,
          0.4929600350879626,
          -0.8855686304429591,
          -0.6327487362958731
        ],
        [
          -0.6191507855862473,
          0.4266808915833258,
          0.05236924378582386,
          0.5572939976084019,
          0.27942061171169796,
          0.7827804776317571,
          -0.38000016398309455,
          0.38017021101432613,
          0.08829879437208099,
          -0.6732933264664576,
          0.3658211134861842,
          -0.46744248634002994,
          0.990064004566956,
          -0.39837803962390117,
          0.6682276788728545,
          -0.8076880230770506,
          -0.000034884057554251946,
          0.5641197892305694,
          -0.740637367750568,
          0.9654331193794099
        ],
        [
          -0.18708869286892083,
          0.3868066570122066,
          0.46995405163972137,
          -0.1308731294590716,
          0.5107211345570661,
          -0.9999006645555804,
          0.08651429483118434,
          -0.17944361857586666,
          -0.7078189798454312,
          0.601706457065508,
          0.2504448995356534,
          0.1878248051979723,
          0.8873525338681374,
          0.669608263256245,
          -0.5636930680371889,
          0.2927473657352526,
          -0.9519424292186949,
          -0.9444653812635505,
          -0.7855750868384407,
          0.8183056408484672
        ],
        [
          -0.20987988290795734,
          0.78933072268941,
          0.4421038566286146,
          -0.6016375372806508,
          0.4126859804905316,
          0.9516115563813177,
          -0.10749943861741962,
          0.006083931643546592,
          0.36786091207665383,
          -0.9027604289929794,
          -0.7580316167425787,
          0.7897788449642069,
          -0.5933966179458585,
          -0.2987523308229866,
          -0.14535702258096994,
          0.33609467170938223,
          -0.9966943358025491,
          -0.020018400632605626,
          -0.008083837524746174,
          -0.34209887275448103
        ],
        [
          -0.5276320827458827,
          0.5546095939487072,
          0.3985619985123834,
          -0.9706508493052959,
          0.766735997950833,
          -0.5184219548336324,
          0.8197148653963333,
          0.6666350350567307,
          0.39985135383530745,
          -0.6285988644211116,
          0.33264448182163275,
          0.4115035316341813,
          -0.6828097872921808,
          0.4032822458742402,
          0.9967491174921204,
          0.41850107666019576,
          -0.1510655315518611,
          0.27499459960251027,
          0.29024271387934153,
          -0.8019163911400442
        ],
        [
          0.4898926234383436,
          -0.09436938054564514,
          -0.17452979977979333,
          0.047332325198368164,
          -0.6202725623826124,
          -0.7591558388296907,
          -0.33486853843829,
          0.6502592324466581,
          -0.30654239994693155,
          -0.12469410655667812,
          -0.9917193852634945,
          -0.2774524195079445,
          -0.817191759903599,
          0.569672911970591,
          0.9469139989242479,
          0.2178543068365053,
          -0.3441621112931943,
          0.6015626758715775,
          0.03494646198831575,
          0.3126648016951643
        ],
        [
          0.15778996215634744,
          0.41166456722011824,
          -0.1459273147238659,
          -0.9489606900464176,
          -0.00927931100495949,
          -0.04819406849057839,
          -0.13404334885528224,
          -0.7453404779391777,
          0.20320238936977386,
          -0.14916998360505584,
          -0.7884106624672409,
          0.9968904231317388,
          -0.24178381112958747,
          0.11616404075486231,
          0.07195554197022358,
          0.6923662671425717,
          -0.05594699039325479,
          -0.2771579844044446,
          -0.8586863605578586,
          -0.12818750777819365
        ],
        [
          0.1550372212916964,
          0.5966235281015966,
          -0.485375296874609,
          0.21180605399198327,
          -0.0037774579356862903,
          -0.8261416928880821,
          0.23218876694581692,
          0.6219933815630707,
          -0.1063081350119125,
          0.9555694560699219,
          -0.673034032258436,
          0.37251170628119246,
          0.5875057723503956,
          0.8431966646535114,
          0.5866784319464353,
          -0.12586423878322484,
          0.7595542122646344,
          0.8802133533231211,
          -0.4159481585194239,
          0.7253637226378875
        ],
        [
          0.8259857980923382,
          -0.9916588961145083,
          0.7867422678951006,
          0.46856743246814103,
          0.5230329734528669,
          0.24281109865351613,
          0.2823909488696805,
          0.12447316625546878,
          -0.18164363646253723,
          -0.3888033266918097,
          0.7852736571013028,
          0.5981697397995844,
          -0.07905860972091949,
          -0.7963776870769035,
          -0.9848917938417692,
          0.5470309080607985,
          -0.41545172356249893,
          0.07147180053567914,
          -0.5635222475662658,
          -0.7795506358315846
        ],
        [
          0.10024935182841932,
          0.8789257220644824,
          0.10359119822901253,
          0.7306420915473231,
          0.4781690362528357,
          -0.13215053664682297,
          0.22997609576719302,
          0.5764555667450286,
          -0.4247802653688053,
          0.5402371268218471,
          0.5416074681719099,
          0.9278164331238399,
          -0.6109690764109352,
          0.8425016867957396,
          0.1812111003608552,
          0.2987416863362993,
          -0.6752631981703581,
          -0.33865558387999195,
          0.7040858546003161,
          -0.3177705363476061
        ],
        [
          0.5448275382083811,
          -0.9760763904540367,
          0.5151515512930231,
          -0.7108482888008484,
          -0.7168319944960213,
          -0.6211841867654045,
          -0.9887547202707023,
          0.5053837108646171,
          -0.34548968934378954,
          -0.31487564683093283,
          -0.32984248900949487,
          0.07716788993844736,
          0.4799766998103687,
          0.4847814376213857,
          -0.6076204542028858,
          0.2810786891310204,
          -0.044305077295561546,
          -0.4170415564612232,
          -0.45880989939203165,
          -0.42928269630426674
        ],
        [
          0.05612650417720921,
          -0.7685830952838995,
          0.21385613764470923,
          0.11107207523857165,
          -0.1955546438414123,
          0.6275491921441665,
          -0.37247392934272083,
          -0.2088162157916812,
          0.6889431665538104,
          0.45207576514416337,
          0.7132570872431006,
          -0.8235538218663265,
          -0.6876663710020207,
          0.9275905672530997,
          0.9020329778032927,
          -0.23052366002811808,
          0.7080675319619281,
          0.9713520567485059,
          -0.40012224970493093,
          -0.1667233861011762
        ]
      ],
      "size": [
        12,
        20
      ]
    },
    "weights_h1_h2": {
      "mathjs": "DenseMatrix",
      "data": [
        [
          -0.41999270623189644,
          -0.15871790488998105,
          -0.8349062288246152,
          0.4556352988383343,
          0.8040164465694235,
          -0.6208214993761423,
          -0.5465202727990363,
          -0.859499645516579,
          0.6059823693827688,
          0.49258842526725455,
          0.04842069391292059,
          0.9789062719299153,
          -0.9302153043604885,
          0.016367375672167173,
          0.44003030592237513
        ],
        [
          -0.6388699062497655,
          -0.007521598839757115,
          -0.31169274256154444,
          0.2863701745026612,
          0.011752650168982859,
          -0.4200784513705449,
          0.40666175220455747,
          0.742195644503518,
          0.8679973681416042,
          0.6640990887159037,
          -0.494274233644283,
          0.16618153879780073,
          0.622552446452028,
          -0.7413289958438143,
          0.7694577196858141
        ],
        [
          -0.7346192741607332,
          -0.14882262667317125,
          0.4539047912131704,
          0.4520911181358256,
          0.3863239249071406,
          -0.31461351956659656,
          -0.29628687845777846,
          0.5066027865289429,
          0.20581821920088017,
          -0.048002338634500874,
          -0.8843333052903439,
          0.6885359379112868,
          0.5483307361954233,
          0.9547314070064352,
          0.44303713981558923
        ],
        [
          -0.6930467579557663,
          -0.3079067534886707,
          -0.9710009752705099,
          0.4010381232009177,
          -0.25823822204395674,
          -0.08027834330348693,
          0.29182667887897873,
          0.1581005263414168,
          -0.9951930957377186,
          -0.30535580543317076,
          -0.8886685655452763,
          -0.2864445076861667,
          0.9268277905865308,
          0.3539587076024018,
          -0.5951651061999833
        ],
        [
          0.23135261167800025,
          0.4171590588571654,
          0.1284402848736168,
          0.6757338814078857,
          -0.07493270684116227,
          0.9992584604523382,
          0.4207336145696414,
          -0.10501148510172709,
          -0.7850882818388113,
          0.7716865007122098,
          0.08221250117905088,
          -0.7949123642693895,
          -0.12782595622838888,
          -0.17644858216760018,
          0.08296561088477938
        ],
        [
          0.7644047083864212,
          0.5163602387844259,
          0.37876530581838574,
          -0.5298490940824654,
          0.7961760115575547,
          -0.005887890910091675,
          0.019230684805644715,
          -0.5195726445593802,
          0.9980725875899947,
          0.8939123431332632,
          0.45457508301518046,
          0.6164304390911768,
          0.6052177672053907,
          0.37752442737218184,
          0.7744360554917422
        ],
        [
          0.3623591597228695,
          0.4819274419202999,
          -0.4115346371535429,
          0.6607468041015869,
          -0.07871253090358588,
          -0.5124819179362816,
          -0.32887469864748,
          -0.023966117043002444,
          0.29699938520338676,
          0.4508015940722234,
          0.15616399676130865,
          -0.7723589268316355,
          0.3809574937208675,
          -0.2591682351544534,
          -0.8504341728277593
        ],
        [
          -0.4726333761945286,
          -0.16379468467552416,
          -0.40185447972524846,
          -0.8043849833516987,
          -0.832030093714328,
          0.17483774721622058,
          0.7650364732579973,
          -0.11164933925700615,
          -0.9649148243082533,
          0.051273253182015255,
          -0.4943606730455681,
          0.34607678864418334,
          0.1934634161232971,
          0.5016175175623125,
          -0.5640387953425523
        ],
        [
          0.35493752015275715,
          0.08383425126589339,
          -0.7527400609180117,
          0.6198221971898821,
          -0.8449360233452576,
          0.49827788832600817,
          -0.25809902063233536,
          0.6762878661365037,
          0.7436378025347339,
          0.44148981454932357,
          -0.6254769980814269,
          0.3483933836012538,
          -0.7883625288329066,
          0.9734949605353451,
          0.8474945595092935
        ],
        [
          0.9055008445747956,
          0.54677776706807,
          -0.7236496453469516,
          0.0933107234908761,
          -0.8941600750604332,
          -0.040200600656465246,
          -0.01817923122768783,
          0.6622527701955825,
          -0.016810245657423617,
          -0.7691923385638886,
          -0.7032099400244519,
          0.05028045155267291,
          0.06157901208363259,
          0.994336835257613,
          0.09921310405814676
        ],
        [
          -0.9510468923525982,
          0.2914076134993897,
          0.16909757356121258,
          -0.010135319760782191,
          -0.7272241019349996,
          -0.17244109081918224,
          -0.6160651607471954,
          -0.8096921563677297,
          0.7056104246871868,
          -0.010379596284405324,
          0.5280004581852142,
          -0.801032592527611,
          -0.6913545583013313,
          -0.38326870812669767,
          0.501410008758955
        ],
        [
          -0.20817084554121779,
          -0.4309819942412164,
          0.48572770400924004,
          0.39913908863280434,
          0.8274486061447812,
          -0.3543494237761401,
          -0.35908972417294005,
          0.956056302074261,
          -0.1528253691554643,
          -0.7609301457501516,
          0.33501695323547387,
          -0.639777189513856,
          -0.7589235796679189,
          -0.21917773084526404,
          -0.6282925016354817
        ],
        [
          -0.3845091477489615,
          -0.574869034995442,
          0.9442422836406994,
          -0.918900421318054,
          -0.19236207075191614,
          0.9138545126961484,
          -0.4460840746281135,
          0.3493254743258718,
          0.5141423890754939,
          -0.5355099091461593,
          0.1740228589274233,
          -0.0276591797136011,
          -0.23993315272054982,
          -0.506857944822569,
          0.5842912740904891
        ],
        [
          0.27757255101091194,
          -0.7705106379344093,
          0.5417137882064225,
          -0.7754337311464222,
          -0.1712867665225275,
          -0.10655988706761488,
          0.38046963455535243,
          0.6487358699112242,
          -0.5775868156121753,
          -0.7590453974195948,
          0.782660597931917,
          -0.762141851349577,
          0.6641500404588121,
          0.8381047260475618,
          -0.6735755698566319
        ],
        [
          -0.24828602420319057,
          -0.15408226854512352,
          0.07109320109948092,
          0.08742756376761451,
          -0.6112248448415676,
          -0.5655036497448168,
          -0.39724801917808383,
          -0.2773486034075078,
          0.80884680614759,
          -0.6781007177744469,
          -0.05506147238917458,
          0.5831177731590309,
          0.27388488540215605,
          0.785572335358562,
          0.8320319180809084
        ],
        [
          -0.619332200832653,
          0.8528006260223502,
          0.6915797588794685,
          -0.3445215763852899,
          -0.9403348375542423,
          0.2673444435603638,
          0.1762855125945102,
          -0.023451241843792436,
          -0.8966226805929944,
          -0.4744162962437899,
          0.09892440180823026,
          -0.7803361981985009,
          0.7572184096426366,
          -0.23704927589458258,
          -0.5613357346748298
        ],
        [
          0.6613787185127069,
          -0.9444501501920529,
          0.7884671016438629,
          -0.9180187494136128,
          0.6148428986435872,
          0.173029575785981,
          -0.4732309182824087,
          -0.30635346189898527,
          -0.8111376722639554,
          -0.7077947169903167,
          -0.31720230523882753,
          -0.9655808988470502,
          0.7076741625590255,
          -0.3553011713371106,
          0.5349948598209582
        ],
        [
          0.3716033574398485,
          0.6413334011589351,
          -0.5357809093529143,
          -0.7397534239629905,
          -0.8544490277192024,
          -0.7107473624412985,
          0.3098966788044153,
          -0.9099209136417168,
          -0.9861270147628345,
          0.566506834523979,
          0.969153189368023,
          -0.5225813828573768,
          -0.06959571535762832,
          0.6782613958868389,
          0.8197016826229915
        ],
        [
          -0.28731348300135906,
          0.636090546483334,
          -0.17374005700190764,
          -0.22094144360346712,
          0.28880795751087707,
          0.8809383556845016,
          -0.028896475095235852,
          0.06954252046874254,
          -0.07861855130124618,
          0.6260516404702472,
          0.5820495805344843,
          0.27456113138568483,
          0.41809502140089894,
          -0.11938234312314344,
          -0.09923475471083754
        ],
        [
          -0.5431197388972004,
          0.9388325632603822,
          -0.3404270164685098,
          -0.0017048187257642233,
          -0.49693047068864793,
          0.9268732000555855,
          0.8468342032267415,
          -0.5134658156934028,
          -0.38443754384635587,
          0.4316141246968508,
          -0.24529285119781663,
          -0.45440738889319754,
          0.8468955265468585,
          -0.001759126764509067,
          -0.40735923558660936
        ]
      ],
      "size": [
        20,
        15
      ]
    },
    "weights_h_o": {
      "mathjs": "DenseMatrix",
      "data": [
        [
          -0.01923183043649579,
          -0.11392138001379415,
          -0.6920127524095528
        ],
        [
          -0.1762597989300898,
          -0.110467390927942,
          -0.46217546226802964
        ],
        [
          -0.46882378994342977,
          0.432347720109308,
          -0.11563264313723187
        ],
        [
          0.2915001137773079,
          0.39513218173388887,
          -0.43326063064616627
        ],
        [
          -0.031166425381464302,
          -0.03559908981192439,
          0.21795854977556184
        ],
        [
          -0.36189068871314534,
          -0.519612959645471,
          0.18470041577499918
        ],
        [
          -0.40682503162762906,
          0.7009744079567106,
          0.18025518268356056
        ],
        [
          -0.3071697531430294,
          -0.5576618216943892,
          0.4309908729107552
        ],
        [
          0.4295208497486853,
          0.19478572476532063,
          -0.638041704945024
        ],
        [
          -0.699200194082259,
          -0.1568172760884291,
          -0.812142439383066
        ],
        [
          -0.9766107162673582,
          -0.08231132428674981,
          0.09581394446356106
        ],
        [
          -0.1098029852686443,
          -0.5955800981205237,
          0.31835345653051106
        ],
        [
          0.03456626424448461,
          -0.10487622770054683,
          0.8380046637162049
        ],
        [
          0.38731394572722144,
          -0.27160867353297313,
          0.0265796001833567
        ],
        [
          0.6239152263528067,
          0.13636241648785852,
          0.6348709265548953
        ]
      ],
      "size": [
        15,
        3
      ]
    },
    "bias_h1": {
      "mathjs": "DenseMatrix",
      "data": [
        -0.23642899840183484,
        0.42537394579759735,
        -0.21425810641439502,
        -0.453367836181102,
        0.5980559961242171,
        0.6055019703133016,
        -0.2818396649327347,
        0.45485279710795545,
        0.5510900284741371,
        0.5833366834318106,
        -0.3221272860584713,
        -0.9653365266179033,
        -0.946621741090059,
        -0.8368233015127715,
        0.5285719312040125,
        -0.23173957708471882,
        -0.20913534863418826,
        -0.7417075350594435,
        0.3808225763844624,
        0.36714264667412455
      ],
      "size": [
        20
      ]
    },
    "bias_h2": {
      "mathjs": "DenseMatrix",
      "data": [
        -0.8486374230594113,
        -0.44060996534290675,
        0.06326915017189161,
        -0.8665782731401104,
        0.94839607053282,
        -0.88910605044419,
        -0.7655999340576036,
        -0.3281407443771247,
        0.34904118720048705,
        -0.763081460140913,
        0.37114832075713755,
        -0.8008072823383993,
        0.5264327538655533,
        -0.6539464504999741,
        0.08449314633630856
      ],
      "size": [
        15
      ]
    },
    "bias_o": {
      "mathjs": "DenseMatrix",
      "data": [
        -0.9769039531655277,
        -0.15367327907880424,
        0.15369780199134664
      ],
      "size": [
        3
      ]
    }
  }
}
