{
  "in": 6,
  "hn_1": 20,
  "on": 5,
  "weights_i_h": {
    "mathjs": "DenseMatrix",
    "data": [
      [
        -0.2163826407033509,
        0.4588220284822664,
        0.2940448865592722,
        -0.3613563169554789,
        0.9094000370024802,
        0.005011262654129212,
        0.3095383398796565,
        -0.3731106396474929,
        0.5606847889780262,
        -0.8227025680050327,
        0.9093976901108425,
        -0.8177703281712742,
        -0.9183262468974718,
        0.2999769600920379,
        -0.9585196594895506,
        -0.7453200313590767,
        0.5332364773408236,
        0.8643324760788549,
        -0.610024832356973,
        -0.5764692017371669
      ],
      [
        0.4450519578644472,
        -0.19170260403036565,
        0.696452814475208,
        -0.9458516106695449,
        0.2469835626929786,
        -0.2053362341893198,
        -0.67670813530213,
        0.6148021795033891,
        0.3735953578360247,
        -0.7153162755567719,
        0.0918534067181116,
        -0.8190168651759088,
        -0.06669788503061469,
        -0.8341048947660132,
        -0.8522179949001173,
        0.7161726462371447,
        0.3538463487562784,
        0.9365099992279773,
        -0.6445901145501933,
        0.40625139489336903
      ],
      [
        -0.6829745957212494,
        0.1305783271781944,
        0.6221814080746222,
        -0.5361451932112774,
        -0.9781040674092173,
        -0.8142977716886834,
        0.95500894763213,
        -0.4573730572106458,
        0.27921677585152915,
        0.006455944644635725,
        -0.5779908681031384,
        0.03268262424599744,
        0.2548804466719825,
        -0.49774798898780237,
        0.322383028526785,
        0.9980177921472675,
        0.9138134523537227,
        -0.9417098953558735,
        0.801327379452814,
        0.9601596241669064
      ],
      [
        0.6410645189715538,
        0.5310684699007846,
        -0.7484890878871815,
        -0.26846291382460885,
        0.1749068498351709,
        0.10851756587202677,
        -0.2493971589783025,
        0.2103190868860756,
        -0.5054524275046542,
        0.6017467024783296,
        0.14052265705493183,
        -0.9831619179014843,
        -0.21412541782556938,
        0.13835046905953985,
        0.41225822921152067,
        -0.057188888985772124,
        0.5171011188106605,
        -0.5635789462338577,
        -0.38139291120783847,
        -0.5741078966809166
      ],
      [
        0.6634903112774106,
        0.8073559514120234,
        -0.606095477579658,
        -0.31363405553952883,
        -0.9034744826832368,
        -0.8195267210592616,
        0.8015798896548911,
        0.4124144355594199,
        -0.5480468689681146,
        0.86415749603925,
        0.9581321326481473,
        0.404174336616814,
        -0.49673324522991125,
        0.3014151862327421,
        -0.2571892983120716,
        -0.42739234319864994,
        0.6687023885948586,
        -0.7145664983194562,
        0.055879461665495844,
        -0.4721522280440351
      ],
      [
        0.12419310424451546,
        0.9455936076489959,
        0.4117741655122793,
        -0.8153432066987596,
        -0.6413029757699356,
        -0.5354895844919105,
        0.9879769783535599,
        -0.5473877688290687,
        0.9985199621254113,
        -0.5116389209934584,
        -0.39616423313294025,
        0.7605101052666614,
        0.45072783358159096,
        0.1859219653155928,
        0.0820720030675961,
        -0.6836668322045178,
        -0.20247827444767896,
        0.7212479120835062,
        -0.8884688239014601,
        0.655353732693778
      ]
    ],
    "size": [
      6,
      20
    ]
  },
  "weights_h_o": {
    "mathjs": "DenseMatrix",
    "data": [
      [
        -0.730699334796815,
        0.2256018701033109,
        -0.20741175597086803,
        0.7824377732296985,
        0.3272608022439554
      ],
      [
        -0.9407658327661652,
        -0.9576060919717818,
        0.7418727924368491,
        -0.5014547319899061,
        -0.41941419259142976
      ],
      [
        0.01852454314710328,
        -0.08528585056310278,
        0.278659812415482,
        0.7490443483877327,
        0.11756909808702609
      ],
      [
        -0.14387052610831663,
        0.8411692594563049,
        0.3585832631058372,
        0.7436332409342459,
        0.8781539528423694
      ],
      [
        -0.575597534185577,
        0.007747519741864606,
        -0.8369329981343561,
        0.49755410249895715,
        -0.009710157510869344
      ],
      [
        0.9125299508249891,
        -0.578426848848113,
        -0.226365180833781,
        -0.9313596642787384,
        0.18841383568436876
      ],
      [
        -0.3142305587554374,
        0.4446514366400913,
        0.18454292569857222,
        -0.5775899990139828,
        0.7920308870814745
      ],
      [
        0.8288790906284103,
        -0.7703829355854106,
        -0.4854257001237918,
        0.5841610119677993,
        0.26047255183370144
      ],
      [
        -0.4936536828316289,
        0.32467987353291816,
        -0.6598627075244636,
        -0.698822947359219,
        -0.9927145800738021
      ],
      [
        0.9181812228982191,
        0.9347571125929364,
        -0.059117776223462815,
        -0.19566065665917598,
        -0.971853156343861
      ],
      [
        -0.4757312034969524,
        0.20164112996040084,
        -0.5273661198591058,
        0.8986860968435264,
        -0.7128367643337445
      ],
      [
        -0.23385596469125847,
        -0.9244156919532607,
        0.07491053258144076,
        -0.09552185419511228,
        0.6711990339427809
      ],
      [
        -0.6940174783691595,
        -0.8064340390272668,
        0.9947089898382455,
        0.17725293942272846,
        -0.43674085086470904
      ],
      [
        0.15848411886588276,
        0.8926749552405913,
        0.23629129798151594,
        -0.5795980282722477,
        -0.2605056369132035
      ],
      [
        0.4433676040643506,
        0.44172887527693616,
        -0.0007300028412607906,
        0.3108809847216909,
        0.9904697102819551
      ],
      [
        -0.29660570268657394,
        0.9062676180543725,
        0.8972406292418291,
        0.29944294384686354,
        0.10938557047612751
      ],
      [
        0.643907608602402,
        -0.9303239268960871,
        0.33106099481292905,
        -0.8101911006411612,
        0.14503251559480024
      ],
      [
        0.8059258950200328,
        0.7048882997575476,
        0.4212244164238992,
        0.8615762123795856,
        0.4594603573676017
      ],
      [
        -0.5181231851668383,
        -0.9474422014645989,
        -0.9513963960077473,
        -0.8535600293520706,
        0.633257849149466
      ],
      [
        0.3975428627114721,
        -0.9949513445125168,
        0.9930976185839844,
        -0.19198743173632848,
        0.8027412658779725
      ]
    ],
    "size": [
      20,
      5
    ]
  },
  "bias_h1": {
    "mathjs": "DenseMatrix",
    "data": [
      0.8397724248361402,
      0.32810528834352426,
      0.20020889316197077,
      0.584505724562218,
      -0.11155689485398002,
      0.33256247531692296,
      -0.23057355253710532,
      0.5528592559748775,
      -0.5280838078195926,
      0.6070887489267376,
      0.828841399259872,
      0.2752896824472919,
      -0.1912541707065245,
      -0.8012898690536385,
      0.9982212562413453,
      -0.9646197529834526,
      0.9068233573137454,
      0.8136629494503298,
      0.6374619111496378,
      0.9115399870084495
    ],
    "size": [
      20
    ]
  },
  "bias_o": {
    "mathjs": "DenseMatrix",
    "data": [
      -0.2401262363311062,
      0.8076064886076806,
      0.5501510283259448,
      -0.5917565072076265,
      -0.20911198161502842
    ],
    "size": [
      5
    ]
  }
}
