{
  "in": 6,
  "hn_1": 20,
  "on": 5,
  "weights_i_h": {
    "mathjs": "DenseMatrix",
    "data": [
      [
        0.885299318901904,
        0.2463807457186713,
        0.1526024349196784,
        -0.4033472798431116,
        0.9845299974984196,
        0.49825394883413265,
        0.23436200881138536,
        0.42489822783078934,
        0.23188828973723696,
        -0.3435260123146676,
        -0.21850731456664196,
        -0.6272544341827966,
        -0.5444614911249681,
        0.03907942252225616,
        -0.730821118605955,
        0.8453875360154702,
        0.09805452238998247,
        0.3144137343518447,
        0.05058515634488113,
        -0.6396312417732175
      ],
      [
        -0.050660637824751276,
        0.5220213622289518,
        0.4169993519163544,
        0.0399929538551862,
        -0.535718881996839,
        0.08389990772281841,
        -0.09208277697875122,
        -0.6365781787619924,
        0.7612802062512476,
        -0.8774873471361344,
        -0.8214173475527304,
        -0.5701280087030456,
        0.08712067881267793,
        0.2386258241371948,
        0.89470016759633,
        0.1510091847677324,
        -0.34741491665543434,
        -0.9676293292840118,
        -0.5498165709142628,
        -0.48509851844544505
      ],
      [
        0.3072913930662824,
        0.5514605423116063,
        -0.9645611191059397,
        0.4636679302130746,
        0.2261935860032176,
        0.8441974099981564,
        0.3873206657213366,
        0.6172497769351886,
        0.858129723456055,
        -0.9952558890798407,
        0.1958988026920676,
        -0.4632747835406925,
        -0.9787156822752303,
        0.48464327546679375,
        0.06478641186344225,
        0.6354691368573486,
        0.763827339770399,
        -0.34986591661591426,
        -0.7994850573792796,
        0.9067906444542888
      ],
      [
        -0.1604530433516509,
        -0.038318721482779705,
        -0.8659568122338396,
        0.4011964290783103,
        -0.5168169670045591,
        0.886549626971594,
        0.16584924873028767,
        0.8351610223813495,
        0.7360846378117087,
        -0.43428728338791067,
        0.776676327535829,
        0.2060882919814524,
        -0.038188809146154634,
        -0.7301237647921593,
        -0.2919816621204968,
        0.48335486205736244,
        -0.6503512849914561,
        0.7912309166318823,
        0.5376327770491465,
        0.1316940102398474
      ],
      [
        0.8719151405941217,
        -0.6513113987844658,
        0.24457091234970507,
        -0.4859265748781251,
        -0.06861650529382146,
        0.5132810248771922,
        0.4557168146637196,
        -0.3112754266873512,
        -0.50593727708546,
        0.42198271240138685,
        -0.5406616249322227,
        -0.13745552006492145,
        -0.5215168645307395,
        -0.9184406561500648,
        -0.6759810747046063,
        0.9699351560891571,
        -0.45615836060005877,
        0.18036698624196035,
        0.6618236155354615,
        0.6332662509258824
      ],
      [
        -0.039456822629983956,
        0.6990839280451013,
        0.6563556610526242,
        0.05623267763499973,
        -0.5107487758120257,
        -0.16528254022008948,
        -0.32776114346668184,
        0.8035797454245681,
        0.7365460568975077,
        0.003963298361895129,
        -0.4020669648349007,
        -0.710774674935976,
        0.6425058128036214,
        -0.032515040694156006,
        0.7975510764419609,
        0.30127933772811616,
        0.14641703531743294,
        0.26728442918299256,
        -0.4956009167705054,
        -0.06671705641244718
      ]
    ],
    "size": [
      6,
      20
    ]
  },
  "weights_h_o": {
    "mathjs": "DenseMatrix",
    "data": [
      [
        0.3610444241089219,
        0.7361861368953346,
        0.33503291798540347,
        -0.5256483910068519,
        0.187884877351294
      ],
      [
        -0.41303750051317534,
        -0.8752843377905036,
        0.6923095214135755,
        0.3387001240956884,
        -0.12187244196778568
      ],
      [
        -0.34803381454460347,
        0.23530053971986908,
        0.12403798931023924,
        0.8446343673904104,
        -0.4076663956043709
      ],
      [
        -0.09128772675024244,
        -0.15081088230804596,
        0.2083877354451953,
        0.932919785529287,
        0.48302275573627584
      ],
      [
        0.7539802235560205,
        0.42623451012876923,
        -0.7664964648477046,
        -0.4922174456145867,
        -0.6143591984622492
      ],
      [
        0.40920463956584086,
        0.2749497275330348,
        -0.8046936881121388,
        0.15427478208369116,
        0.08862868955085856
      ],
      [
        -0.6085294807046298,
        0.3514404799940949,
        0.6730039535816712,
        0.6137243761428364,
        0.7050146681349285
      ],
      [
        0.9578550613284567,
        0.22645065158716804,
        0.48759876468566987,
        0.3342084020022722,
        -0.07540717582406675
      ],
      [
        -0.48824321717435604,
        0.8928801868381492,
        0.359463838905985,
        0.20013882712499154,
        0.7095366305197168
      ],
      [
        -0.5218967784816229,
        -0.46428704199045845,
        -0.6472226507267103,
        -0.7694919072664064,
        0.8734249882533236
      ],
      [
        -0.32678257992910176,
        -0.5217875099067276,
        0.8681444683182551,
        0.6512557147359326,
        0.06821579343848039
      ],
      [
        -0.996279617165175,
        0.423866258234761,
        -0.9256705408724932,
        0.05633487218428179,
        -0.5457668235762347
      ],
      [
        -0.4070388534876903,
        0.00012377584655753893,
        -0.6005454203950578,
        -0.028160278673142303,
        -0.37322090587580614
      ],
      [
        0.8341556087627655,
        -0.5956831018226725,
        0.29650632110668007,
        0.11410481618185608,
        -0.0031780887917888245
      ],
      [
        0.7543903586602163,
        0.6098589171226823,
        0.18838220140029294,
        -0.4226004929843299,
        0.9438552442669637
      ],
      [
        -0.4110962506794861,
        -0.3872535474522387,
        0.2356313399431258,
        -0.30021960765727673,
        -0.45538055137458533
      ],
      [
        -0.7295851972867118,
        0.29770240666584447,
        -0.9347319805720582,
        -0.12821814412744903,
        -0.28479531815916903
      ],
      [
        -0.41028891190575856,
        -0.7421393694921221,
        0.35134152957957987,
        -0.9429505261095885,
        0.8349853682917523
      ],
      [
        -0.40642063855019184,
        0.43621151517258405,
        -0.23288804019701026,
        -0.8301492641060443,
        -0.3550008538154654
      ],
      [
        -0.7386588914005342,
        -0.7691810330445839,
        -0.646993706709547,
        0.41232472844405477,
        -0.5569477150858069
      ]
    ],
    "size": [
      20,
      5
    ]
  },
  "bias_h1": {
    "mathjs": "DenseMatrix",
    "data": [
      0.7856590055713153,
      0.8674079360341267,
      0.709057187676394,
      -0.3854029932685826,
      0.07335424363876086,
      -0.2485261782168695,
      0.23762440066423163,
      0.004483478447372846,
      0.04638087944977265,
      0.6209418962577706,
      -0.307675038375233,
      -0.6151611419498524,
      0.1003723911394474,
      0.8818875203539606,
      0.16772353764984316,
      -0.6185104454590746,
      0.7345668650233266,
      0.07392754616198127,
      0.27296035201253255,
      -0.6100405004673182
    ],
    "size": [
      20
    ]
  },
  "bias_o": {
    "mathjs": "DenseMatrix",
    "data": [
      0.5748286905890654,
      -0.6800935533236826,
      -0.274372444456056,
      0.5924470007078504,
      0.9990552712521026
    ],
    "size": [
      5
    ]
  }
}
