{
  "tankbrain": {
    "in": 12,
    "hn_1": 20,
    "hn_2": 15,
    "on": 3,
    "weights_i_h": {
      "mathjs": "DenseMatrix",
      "data": [
        [
          -0.5955672804845373,
          -0.5755191417827719,
          -0.8891216768131667,
          0.7934730593343098,
          -0.6954168876120308,
          -0.43071705706455665,
          -0.576551296322019,
          -0.3493183804631723,
          0.4517240764428856,
          0.3388961561662627,
          -0.3761304048321359,
          0.33069745823968044,
          -0.4050730010664254,
          0.7960705542490429,
          0.8322535814148935,
          -0.5711488015858923,
          0.20564907959455891,
          -0.35625776535943654,
          -0.9922921051493506,
          -0.8646205103852354
        ],
        [
          0.727437966490782,
          -0.5550281063108358,
          0.711451134530646,
          -0.921218600378446,
          -0.5873141292249244,
          0.9757845954178936,
          0.8011817921518243,
          0.02270539723700038,
          -0.8763216460092903,
          -0.7197124637367824,
          0.382179317371786,
          0.23934816234510792,
          -0.3288137437599169,
          0.026376512826336462,
          0.17626805877250407,
          -0.929133845948041,
          -0.3474717108045582,
          -0.04403429050788077,
          -0.9059376092223282,
          0.6446443410694003
        ],
        [
          0.12304076813934439,
          0.4664438899887924,
          -0.12917646032075214,
          -0.9372754517760384,
          -0.16969597302059503,
          -0.3089255593564828,
          -0.2798940923580201,
          0.016499277586170757,
          -0.5582641624287759,
          -0.6149701516420287,
          -0.5510413014231674,
          -0.41083315506764406,
          0.4055160821296595,
          0.6308121051317743,
          0.8406254090418099,
          0.18801310479256994,
          0.27469386359736125,
          0.8851112079324159,
          -0.27401523235788494,
          -0.5985785537197033
        ],
        [
          -0.2484928427217873,
          -0.8988200971865008,
          -0.5645479551901897,
          -0.2556582361782189,
          0.04922956078402496,
          -0.9596136135891168,
          -0.878448443057245,
          -0.21017695387197377,
          -0.5132237887977245,
          -0.24096957315304368,
          0.44842829907192705,
          -0.5716966559087227,
          -0.23348279044519527,
          -0.5984345365956201,
          0.8579821683804614,
          0.6902001097391237,
          0.7647486367482679,
          0.2520866795237602,
          -0.09639642667980175,
          0.434011293752699
        ],
        [
          -0.9106486149227211,
          -0.4838556494193029,
          0.6948000227440516,
          0.030502839373411028,
          -0.9599531507590665,
          0.25158666516545725,
          -0.30092641835620704,
          0.43380271037080065,
          -0.21048521298772915,
          0.5249598489916185,
          -0.5216771837648569,
          0.544180672095304,
          -0.7909564506855976,
          0.23585759461382438,
          0.3439616750080108,
          -0.8911851269708048,
          -0.2534146532754894,
          -0.5587055721645751,
          -0.5142806021727053,
          0.5699040231662558
        ],
        [
          -0.9857649704966438,
          -0.16338501732144772,
          -0.5222364147947469,
          0.3127143683630773,
          0.08470732818995108,
          -0.30256822042275433,
          0.08121696795275768,
          -0.6909797766233745,
          -0.0181374134648693,
          0.6358790939251016,
          -0.9753749979746278,
          0.5991102086006102,
          0.26023892223797285,
          -0.042876879495272524,
          -0.46753638841301615,
          -0.8577110709216977,
          -0.38843299289741173,
          -0.846034787174374,
          -0.7553284095936269,
          -0.9315865140674261
        ],
        [
          0.7062747469572874,
          -0.42766848830088866,
          -0.6157657918724363,
          0.34311330089143555,
          0.6366390615267143,
          0.39293561191723714,
          -0.7572699866682681,
          -0.9118657380279717,
          -0.5125189939281602,
          -0.042159960828039855,
          0.08188100936516318,
          -0.22296480273723263,
          -0.9966904893852503,
          0.5858386347564541,
          0.5055678580908975,
          -0.8329298322194068,
          0.3543444661745785,
          -0.5613860323813729,
          -0.2846558945730767,
          -0.08324656987277168
        ],
        [
          -0.017563671385008583,
          0.03815069266848958,
          0.011871374103816779,
          -0.611323079080984,
          0.46244303549188137,
          -0.21894986521793902,
          0.5034827630951892,
          -0.9585780119616321,
          0.5684068147041743,
          -0.8311437057229377,
          -0.706558983628323,
          -0.5848428842384243,
          -0.7147899457771074,
          -0.9814626657252941,
          0.7461108500303424,
          0.9247070906151129,
          0.13922616731917792,
          0.9254171245343621,
          0.1352115431179146,
          -0.9949301510688102
        ],
        [
          0.9036920986496473,
          -0.2696941195460504,
          -0.6061278682036768,
          -0.24759893572867087,
          -0.13111149752832973,
          -0.2724946349246796,
          0.5830169054726075,
          0.48363895065183415,
          0.1508637994146249,
          -0.8378758707126948,
          0.7910771264162777,
          -0.6032771038321543,
          0.8386282200949422,
          -0.5029435304897394,
          -0.3819216197179913,
          0.3171422364161596,
          -0.1912813627374772,
          -0.5293740012999979,
          -0.8768574985577237,
          0.59095309789877
        ],
        [
          0.7044317214474993,
          -0.7478997862867316,
          0.664194517104866,
          -0.21595803423848148,
          0.8136407334436389,
          -0.6631933965634073,
          0.9702873780525287,
          0.5405858990774577,
          -0.31947053595786956,
          0.6709784160785541,
          0.8846692890463812,
          0.8511441293768824,
          0.7417320115979436,
          -0.11377645835813732,
          0.26870508574581575,
          -0.9316799229903433,
          -0.47791968557122544,
          0.5077488027225323,
          -0.6292768246886037,
          -0.4607374837565875
        ],
        [
          0.93475495787791,
          -0.4113137891496893,
          0.7905380120038099,
          0.1704650600914943,
          -0.2936553554622765,
          0.48331651952897836,
          -0.6518059441945971,
          -0.541274984390347,
          -0.637659334398194,
          0.443675358964819,
          0.38309254024035644,
          -0.14574786124630312,
          0.6585679731659884,
          -0.6088267676699415,
          -0.11619670838547891,
          -0.8831994278475908,
          0.0294279281038321,
          0.11349679184764794,
          0.8546459492107039,
          -0.5112042743405508
        ],
        [
          -0.575011341292567,
          -0.7046779676311379,
          -0.181645800807258,
          -0.7553876649522495,
          -0.2312470375303447,
          0.5392893584887326,
          0.7186881967044858,
          0.877426467272161,
          -0.33565099263462006,
          0.713716975421451,
          -0.8599331776975452,
          0.6613140216149047,
          -0.32448924755155495,
          0.4718700947639489,
          0.19335130453738847,
          0.19329784224464275,
          0.7415526959036041,
          0.005755917264692156,
          -0.6407978005146684,
          -0.22634292456046934
        ]
      ],
      "size": [
        12,
        20
      ]
    },
    "weights_h1_h2": {
      "mathjs": "DenseMatrix",
      "data": [
        [
          -0.07101506596521046,
          0.5839213258467251,
          -0.6699095969622497,
          -0.5918741000537732,
          0.8741928662964475,
          -0.6062955161276489,
          -0.2756851606313896,
          0.9863341015100504,
          0.3471669905399317,
          0.9107694458766578,
          -0.17501432313234233,
          -0.8103796860686521,
          -0.1296731743241074,
          0.7090551722184155,
          -0.49066620991337784
        ],
        [
          -0.37004969485685146,
          -0.4963591389920071,
          -0.15782196044487484,
          0.6046888358977909,
          0.5954442099981248,
          0.5014143312661714,
          -0.6388470155884081,
          -0.16756085018162192,
          0.32695036485574724,
          -0.07336507552620031,
          -0.5558672422906993,
          -0.7948451891419726,
          0.9402288628577855,
          0.9584534082173459,
          -0.4429921375806961
        ],
        [
          -0.6892063349856272,
          -0.6137496172308503,
          -0.27524559048266073,
          0.9577428883625823,
          0.8525786580979264,
          -0.5373050875723103,
          0.8668857786968218,
          -0.5684200055315863,
          -0.7657725120327868,
          0.7072956892958218,
          -0.0614215802482152,
          -0.6323026515364413,
          0.3038211563155637,
          -0.6773705928952243,
          0.670854959414932
        ],
        [
          -0.31802275597348306,
          -0.05924787809341692,
          -0.48295342299656796,
          0.3122901625729462,
          0.9786219634358602,
          -0.08616645273974921,
          -0.14805235334358147,
          0.9497150212860954,
          0.4175379809466109,
          -0.23684664057156624,
          0.538668328023826,
          -0.23733194006167913,
          0.18107353311001417,
          0.8686268514490496,
          -0.5156826914657904
        ],
        [
          0.33307208390829723,
          0.8984584460943585,
          -0.5854110837950373,
          -0.19222709406081162,
          -0.6778118653657541,
          0.40590068518182054,
          0.12398942928969281,
          -0.5046774028606198,
          0.612576252661535,
          0.18831660297348796,
          -0.9424572400488996,
          0.1264451935841029,
          0.840318261551728,
          -0.48110845574138794,
          -0.5852698478432267
        ],
        [
          0.17586842904458688,
          -0.6475231726620934,
          0.13424537789646362,
          0.9931044654401435,
          0.07965540970686913,
          -0.7819235423888495,
          0.8069219912908978,
          0.29989561690130206,
          0.28994333849342335,
          -0.2258991762749477,
          -0.3946134427355791,
          0.9884391276688098,
          -0.08002606866765483,
          0.777103801103054,
          -0.8332749918507651
        ],
        [
          -0.8787243895488326,
          0.48662742229489764,
          0.8293339847900221,
          -0.8654741630894425,
          0.4867401191519043,
          -0.8387603797833486,
          -0.8946403591222893,
          -0.5280891067295947,
          -0.14148819965472548,
          0.4986204656102009,
          -0.9609998014725452,
          0.011674743677491328,
          0.9993750283205882,
          0.985313857689484,
          0.9095160077530509
        ],
        [
          0.6795947004556688,
          -0.9465845669053303,
          -0.31229043437904636,
          0.17874137777877297,
          0.8260639488945014,
          0.7289316040308955,
          0.15777752428054304,
          -0.12274282476124299,
          0.292736118174852,
          0.09199212137869317,
          -0.9990833076914605,
          0.20796546373324842,
          -0.3689711953195667,
          -0.6434445671256401,
          -0.09995627241933303
        ],
        [
          0.9263166254827258,
          -0.5166752229317715,
          0.6075976872120783,
          0.31765185864463574,
          -0.6971303785493637,
          0.07111124679569314,
          -0.020454551696559742,
          0.6340047337403842,
          0.6315328866467156,
          0.37243852978606906,
          0.8816631397101671,
          -0.31760434418889416,
          0.5451185941758561,
          -0.3776466655428533,
          -0.483309790290662
        ],
        [
          0.4591733319140998,
          -0.06062724419996901,
          0.7123365175929914,
          -0.5075576621325958,
          -0.1811714502901074,
          0.6938839620502337,
          -0.8344234874827025,
          -0.6386138538711073,
          0.6173873105195478,
          -0.2575494129172411,
          -0.8788971316619987,
          0.5241354025314755,
          0.19048987502459802,
          -0.510965920562658,
          -0.07824891606566964
        ],
        [
          0.9018589847303362,
          -0.01912349215948772,
          -0.014712346047091485,
          -0.48363983045718395,
          0.8201500391496268,
          -0.3066811223946565,
          -0.22517519532132324,
          0.793628841962404,
          0.9891677077352834,
          0.32313459535125455,
          -0.9320947263574804,
          0.5139203452762651,
          -0.579935330587173,
          -0.49387979675362215,
          0.06917800084762726
        ],
        [
          0.5784027752300633,
          -0.9907891061155496,
          0.15031924865251134,
          -0.17799821716109754,
          -0.09717242416567629,
          -0.5695166857359693,
          -0.41147397101788585,
          -0.897668567056864,
          -0.5686283433489956,
          -0.3901916845699559,
          0.4324053173561253,
          -0.6174472026650779,
          -0.7788459340105889,
          -0.8971548908525542,
          0.17726464817950194
        ],
        [
          -0.7269266542801471,
          0.5452610573902263,
          -0.02717314469199472,
          0.6564747115918663,
          -0.3712081180293645,
          -0.6905192136312377,
          0.16148025687386558,
          -0.01819626104063199,
          -0.5365674213989109,
          0.9143637194514427,
          -0.401160071209694,
          -0.5886139794607068,
          0.8605831865584841,
          0.9151815880326739,
          -0.8743118079078098
        ],
        [
          0.2337501912201636,
          0.9331130019768676,
          0.9814046355348809,
          -0.8451624534346966,
          -0.7690182770251446,
          0.5145534891128842,
          0.7665260404497805,
          0.41374585258397634,
          -0.9793509090579126,
          0.7493620166862514,
          -0.38857585483005597,
          0.8018141454242811,
          0.9582791525148828,
          -0.35604306419623033,
          -0.9071518749403054
        ],
        [
          0.3824690850264676,
          -0.770616194976842,
          0.9619172103235094,
          0.9544737472118336,
          0.5799229505484105,
          -0.28491077205843773,
          -0.6735977762348433,
          0.2251664760599621,
          0.4485854141159067,
          -0.7740150651224504,
          -0.19237466559759575,
          0.19182332537329372,
          -0.25255605457420127,
          -0.5345579772610143,
          0.7691278092045541
        ],
        [
          0.38557721388169486,
          -0.4325238898125513,
          -0.573424736431277,
          -0.2087314341624782,
          0.524993481416357,
          -0.9728440919850389,
          0.42457908071461015,
          0.3853875004004781,
          -0.3450704005426404,
          -0.641260697583709,
          -0.26138951004434374,
          0.2986325336828344,
          -0.25445884831901855,
          0.5036219528578472,
          -0.13272041184904704
        ],
        [
          0.8881527952667061,
          0.6985508393632567,
          0.18274747212987474,
          0.25746194606054473,
          0.04403780635264143,
          0.5731673101842221,
          -0.5405843722703556,
          0.402149134059935,
          0.6608131712253571,
          0.8814154867639092,
          0.23145214449083618,
          -0.4750019649039613,
          0.8570923645801134,
          -0.2814621566832691,
          0.14924250637652192
        ],
        [
          0.16283406771018027,
          -0.9808632069497875,
          0.46710111747059946,
          -0.5512650954238512,
          0.19332721119421947,
          0.9350279174295273,
          -0.6297911549217909,
          0.7932846512671339,
          0.2287214463420102,
          0.39186597625670383,
          -0.40823283308560876,
          -0.21081133797068796,
          0.7079298525586017,
          -0.8889614215707385,
          0.2140212951533711
        ],
        [
          -0.6083155269222615,
          0.4939227323482611,
          -0.20473633764629828,
          -0.3608733481404168,
          0.21423896058763958,
          -0.7299806939655186,
          0.6846460778131129,
          0.9490145954900391,
          0.2465357989092063,
          -0.05101153434775607,
          -0.2949990584299793,
          0.7882256085302803,
          -0.43891999005631943,
          0.12386065402104984,
          0.4871701491796572
        ],
        [
          -0.9839140711662117,
          -0.7074756311421306,
          -0.4900156425472213,
          0.5260044691038408,
          0.6240513725119889,
          0.3475423911515383,
          -0.7939282512868151,
          -0.46580026568370403,
          0.3697343169152085,
          -0.023225383967941937,
          -0.7797570565565834,
          -0.8138360655541714,
          -0.2987402325640075,
          0.17667502133251012,
          -0.805389385759574
        ]
      ],
      "size": [
        20,
        15
      ]
    },
    "weights_h_o": {
      "mathjs": "DenseMatrix",
      "data": [
        [
          -0.12334722069835491,
          0.5908786635600114,
          0.5610077791037684
        ],
        [
          0.6489946440364918,
          -0.5432881366178369,
          0.327982299889497
        ],
        [
          0.7179737424397552,
          0.04068556771849319,
          -0.9594105812827695
        ],
        [
          -0.7791691429240699,
          0.6568928075600788,
          0.48490891587426743
        ],
        [
          -0.7906594163761523,
          0.7201775154742143,
          0.7235437036325694
        ],
        [
          0.6186169798723005,
          -0.5709250757944251,
          0.3930427743045739
        ],
        [
          -0.9927540792310573,
          -0.7301861020885723,
          -0.06444849397545371
        ],
        [
          -0.6732866147437608,
          0.034929414363134015,
          0.51264042199813
        ],
        [
          0.42143659501854014,
          -0.9959269383755875,
          0.09142868902354317
        ],
        [
          0.22220111631400186,
          -0.646270309111969,
          0.5122387744566748
        ],
        [
          -0.5461205311890625,
          -0.5098660084488676,
          -0.9230199058847564
        ],
        [
          0.17727421677477517,
          -0.8615176391146785,
          -0.744762012007925
        ],
        [
          0.14125929151377759,
          0.39256716032978645,
          -0.7912299611569414
        ],
        [
          -0.6172331092049168,
          0.27574169976705476,
          0.9220543912790544
        ],
        [
          -0.9909032773818777,
          0.8276941353352933,
          -0.37127588184339466
        ]
      ],
      "size": [
        15,
        3
      ]
    },
    "bias_h1": {
      "mathjs": "DenseMatrix",
      "data": [
        -0.20609380242311803,
        -0.9961980974233688,
        0.8722359897580065,
        0.6138971152962489,
        0.47123099557477666,
        -0.15825733062216019,
        0.9486747453772835,
        0.4814244553530984,
        -0.9493366897415599,
        -0.1057001508876445,
        -0.22657468480040033,
        -0.09347976026105309,
        -0.716925520350572,
        -0.7290643666602501,
        -0.8510388935460966,
        0.8160505907886546,
        -0.021178167332516873,
        0.8918478674815882,
        -0.5342157266892353,
        0.6013238225701694
      ],
      "size": [
        20
      ]
    },
    "bias_h2": {
      "mathjs": "DenseMatrix",
      "data": [
        -0.23968660567401012,
        -0.7920723554286221,
        0.254850254140486,
        -0.06124248438854474,
        -0.20174142425786346,
        0.36807315257472784,
        0.2639126652907273,
        0.49929596894136874,
        -0.9857203775537601,
        0.9243079126862888,
        -0.41898070058368087,
        0.5460686741397869,
        0.626256677415461,
        -0.6758946746490821,
        0.5780426798988549
      ],
      "size": [
        15
      ]
    },
    "bias_o": {
      "mathjs": "DenseMatrix",
      "data": [
        0.2948626308766882,
        0.8820807827366395,
        0.26600515240203815
      ],
      "size": [
        3
      ]
    }
  }
}
