{
  "tankbrain": {
    "in": 6,
    "hn_1": 12,
    "on": 3,
    "weights_i_h": {
      "mathjs": "DenseMatrix",
      "data": [
        [
          -3.169428257294081,
          2.22431418812374,
          -6.038232040249934,
          -1.828267326566415,
          0.11733314615983989,
          1.989936880378488,
          -0.036275644440010135,
          -1.0913775021903669,
          -4.187439121692035,
          3.3992627541987526,
          -2.3712324352225873,
          -1.201482291743677
        ],
        [
          0.022400666356311077,
          -1.3125462427796615,
          0.0989839067134148,
          -0.9341683740438941,
          -1.7144704073588615,
          -1.638932369350089,
          -0.5849735018426585,
          1.0348536694641575,
          -0.4476900876118176,
          -0.8440606105561104,
          -1.922693343699418,
          -0.559734378482278
        ],
        [
          -0.6883975308665209,
          -1.2145909602327454,
          -2.106799182845372,
          -0.28959515543971875,
          3.38491458873006,
          0.13060983142116073,
          2.3680780952805747,
          -0.5123237916620464,
          0.33217280912703456,
          0.6328525096925484,
          -1.600538304335804,
          -2.140487434490186
        ],
        [
          -0.8830870506176445,
          -0.6317340204916859,
          0.2510663502916492,
          2.876409794633961,
          -1.642547323111018,
          0.21064079891036713,
          -3.998539985178974,
          0.10197244079689385,
          -2.985292859995487,
          -2.8536937428886375,
          -3.3763870235326334,
          0.5229523424400025
        ],
        [
          -2.473694189637588,
          3.718482735684416,
          -3.119259005463522,
          -0.1339632695473598,
          0.45318473075963683,
          3.0155574294567566,
          -6.380344657918196,
          -4.276696147680937,
          -3.8501011294980136,
          1.7444074685554598,
          -2.1158040459690395,
          1.965087257015367
        ],
        [
          1.981697443162398,
          -1.9100880884823235,
          1.3008378106448573,
          0.8896946042842556,
          -0.6603431794451473,
          0.32508400912978264,
          0.7692058497204761,
          1.5448983934110163,
          -0.04250371012466318,
          -0.698063627473649,
          -0.29299291325606475,
          -0.6326572744540102
        ]
      ],
      "size": [
        6,
        12
      ]
    },
    "weights_h_o": {
      "mathjs": "DenseMatrix",
      "data": [
        [
          -2.4899930380435835,
          1.1091237135998324,
          -2.0189516017304094
        ],
        [
          1.317088206919593,
          -0.3795822813301396,
          -0.6315385507010454
        ],
        [
          -3.5430580606937294,
          5.327996684154543,
          2.3211818114370955
        ],
        [
          -2.7969130362907095,
          2.9504048236130287,
          -0.3492002043166588
        ],
        [
          -6.481040309106367,
          -0.19318941357712074,
          -1.0398792157269392
        ],
        [
          0.8923076720609411,
          -0.997422349558504,
          3.7574256744037084
        ],
        [
          -0.7598044619779779,
          3.0997976947803143,
          1.7021519681689568
        ],
        [
          0.38479383621734775,
          5.598829215490189,
          3.215918363401954
        ],
        [
          -2.496139305749508,
          2.862094764058693,
          -3.12323074018694
        ],
        [
          -2.2533539204086934,
          -2.7320212227070457,
          -1.3905965871265085
        ],
        [
          -1.3936721747187588,
          2.8174118953090916,
          -2.1873187671961483
        ],
        [
          0.6814698468869284,
          0.5201187869845713,
          1.4604445656520713
        ]
      ],
      "size": [
        12,
        3
      ]
    },
    "bias_h1": {
      "mathjs": "DenseMatrix",
      "data": [
        -1.5794853437365657,
        -1.2225676169325905,
        1.412645979684866,
        -5.73560254616984,
        -1.2356836605117598,
        -1.4945449056480649,
        -0.18893731876627123,
        -1.9203310597718566,
        0.28362228999532874,
        -2.3829268860139,
        -0.24853214397856038,
        -3.206484132998175
      ],
      "size": [
        12
      ]
    },
    "bias_o": {
      "mathjs": "DenseMatrix",
      "data": [
        -1.8174303156215459,
        -1.881118145634447,
        1.1042528541158863
      ],
      "size": [
        3
      ]
    }
  },
  "inputConfig": {
    "position-x": true,
    "position-y": true,
    "velocity-x": true,
    "velocity-y": true,
    "direction": true,
    "enemy-position-x": false,
    "enemy-position-y": false,
    "enemy-velocity-x": false,
    "enemy-velocity-y": false,
    "angle-to-enemy": true,
    "projectile-position-x": false,
    "projectile-position-y": false
  },
  "botMode": "stationary",
  "outputMode": "mapped",
  "gamemode": 3,
  "generation": 4000,
  "score": 601.1999999999999,
  "hitaccuracy": 0.7727272727272727
}
