{
  "in": 6,
  "hn_1": 20,
  "on": 5,
  "weights_i_h": {
    "mathjs": "DenseMatrix",
    "data": [
      [
        -0.2694217587412733,
        0.9898440881774078,
        0.2960117044610404,
        -0.8336792871147463,
        0.7225187579785828,
        0.7745580062866919,
        -0.6224435226286316,
        -0.4074935257595381,
        -0.7028477874906542,
        -0.26247667569652355,
        0.60838958029381,
        0.08285402683398724,
        -0.5956239481261449,
        0.35565459690404233,
        0.28261346772259155,
        -0.49817866411022604,
        -0.8585654092467931,
        -0.5216279903095957,
        -0.13675598598707983,
        -0.058079776037170294
      ],
      [
        -0.5661496475293601,
        0.42336634655197103,
        -0.8030916844988429,
        0.66025000645539,
        0.5399618082616595,
        0.40032799264885854,
        -0.22852719002411737,
        -0.3345487474652503,
        0.959779970876503,
        0.4182328547119376,
        -0.6427004579979203,
        -0.886494160244141,
        -0.630808014629117,
        0.11801915984864886,
        0.6993079339451598,
        0.6654271564830148,
        0.9842074629304471,
        0.8180659467871001,
        -0.03214536799302803,
        -0.3981010627478655
      ],
      [
        0.990940132544422,
        0.6806699966924539,
        -0.8553044923829267,
        -0.21115631029331772,
        0.6512338266821267,
        -0.813003351579088,
        -0.176921964084649,
        0.6169892891064677,
        -0.993704155437379,
        -0.4244179908232816,
        -0.03831997934254383,
        0.8556654057381372,
        -0.4943472241546648,
        -0.4564971858658473,
        0.0634221522709324,
        -0.6460802570386186,
        -0.8827585586178117,
        -0.9650819994849366,
        0.9513195932296723,
        -0.46205547050895623
      ],
      [
        0.6391202706289463,
        0.9974620099903326,
        -0.6176960204176662,
        -0.7517132277895621,
        0.8644439633240488,
        0.436666946888719,
        -0.4594011217279075,
        0.6117059000675507,
        0.129521980137157,
        0.6327680091813521,
        -0.3969436142463728,
        -0.2993277422054834,
        0.7520439761189732,
        0.801530403856026,
        -0.4005817712755917,
        0.7116982175010551,
        -0.26016766062779273,
        -0.2635729439061604,
        -0.36573393652219577,
        0.7349517235027057
      ],
      [
        0.989724629450633,
        0.5143344652168291,
        0.4187824490595726,
        0.2761344172287854,
        0.4388720727786155,
        0.3940828368343623,
        0.8060024001722337,
        0.5876970224850588,
        -0.1929266653770788,
        0.10271761442750216,
        -0.5866247937310491,
        0.8909459639348549,
        0.278763451119173,
        0.13489459356937017,
        -0.5562101929943435,
        -0.11111232295214468,
        0.0032328705716178074,
        0.9143790094667956,
        0.5541344616586572,
        -0.8020392802022328
      ],
      [
        0.948819572291995,
        -0.6686253436763561,
        0.31239134750097075,
        0.3229573554482936,
        -0.865416827566464,
        0.017556717608931738,
        0.5028494708145212,
        0.61193810517404,
        0.21284395458874616,
        -0.9113902533956413,
        0.9440594626663672,
        0.6448608972054293,
        0.3466919310057548,
        0.06840503523699115,
        0.47056169315198604,
        -0.13140200838524385,
        0.3204717085872575,
        0.9594367460248352,
        0.3613398630049652,
        0.7892263582269217
      ]
    ],
    "size": [
      6,
      20
    ]
  },
  "weights_h_o": {
    "mathjs": "DenseMatrix",
    "data": [
      [
        -0.9531498858978371,
        0.4688240234719179,
        0.700075639411428,
        0.33630298996122376,
        -0.46833736806090265
      ],
      [
        -0.3548344791251158,
        -0.49913195699417945,
        0.08841623254425457,
        -0.3102495233689627,
        0.2806234454134209
      ],
      [
        -0.5988584301702786,
        0.35043490789587883,
        0.5382293473868707,
        0.36745814598167925,
        0.6306509553865465
      ],
      [
        0.48027418701581115,
        -0.5877720440709485,
        0.29855084317645053,
        0.8740961990684146,
        0.15180138423600464
      ],
      [
        0.21559854962248526,
        -0.4968538141355092,
        0.008371535922469642,
        0.7033408044537568,
        0.5599105822760175
      ],
      [
        -0.9174997541281618,
        0.009097905287166252,
        -0.5648454939086012,
        0.3807474047815005,
        0.20911867549230045
      ],
      [
        0.9983297338880652,
        0.6266586052438925,
        -0.7159189082524008,
        0.5703203428626888,
        0.9453514395358555
      ],
      [
        0.6394082648634363,
        0.7819153797481055,
        0.02464858216961363,
        -0.5480322730830816,
        -0.35694481683529433
      ],
      [
        -0.3819520603248394,
        0.6605933378458289,
        -0.6790197046894033,
        0.02996604370712319,
        -0.2662239019175139
      ],
      [
        -0.3711386640328189,
        -0.5093149622213631,
        -0.13688855106682607,
        -0.9030343266891263,
        0.19492186725802796
      ],
      [
        0.17147378367296162,
        -0.7647700787203555,
        0.45161796736214255,
        0.3802205896393671,
        0.28851140132468767
      ],
      [
        0.4461560828266684,
        0.4436819834574057,
        0.32587462604600015,
        0.22084408423021662,
        0.18644639601339286
      ],
      [
        -0.2600676874062726,
        -0.3772044087866916,
        -0.7773774074200811,
        -0.2188323017910373,
        0.6090741676199387
      ],
      [
        -0.28140624989722907,
        0.37753772336426294,
        0.7612217147083902,
        -0.8882215675084851,
        -0.7200566766786196
      ],
      [
        -0.8287423398384512,
        0.27537684992801004,
        0.20991655116349284,
        0.24491163240593639,
        0.5783518609355771
      ],
      [
        -0.9675517028853735,
        -0.1725471384061713,
        -0.03418613789861458,
        -0.9098920128804836,
        0.05081793881285484
      ],
      [
        0.726685775392222,
        0.9478888710543176,
        0.6046407811699255,
        0.019684296113150257,
        0.41115533734497567
      ],
      [
        0.5472745884720822,
        0.5706280424645065,
        0.05483506340038735,
        0.9780882509234881,
        0.882117325712557
      ],
      [
        -0.18994554243247586,
        -0.6298989805650113,
        -0.958516678023766,
        -0.2710912840934989,
        -0.29482406497583935
      ],
      [
        0.1798080553344934,
        0.8625740221622318,
        -0.34507496728094866,
        -0.2554797706236236,
        -0.7774291079849486
      ]
    ],
    "size": [
      20,
      5
    ]
  },
  "bias_h1": {
    "mathjs": "DenseMatrix",
    "data": [
      0.3740153842668468,
      0.10696976149550297,
      -0.8529934003360592,
      -0.4834444470759064,
      -0.9050457774105103,
      0.7325123547091426,
      0.4665294928324224,
      0.2727218674485432,
      -0.9499387131527811,
      0.35936369755728137,
      0.3559163412811859,
      -0.45367929058169754,
      -0.19345547345556635,
      0.6557682747621578,
      -0.7916659203044085,
      -0.6012753096565131,
      0.5813380307835243,
      -0.5891510603356713,
      0.9995794121785995,
      -0.20172856602370237
    ],
    "size": [
      20
    ]
  },
  "bias_o": {
    "mathjs": "DenseMatrix",
    "data": [
      -0.3102209362137067,
      0.656656423380179,
      0.564338744291536,
      -0.49659650036332625,
      0.8395292540747314
    ],
    "size": [
      5
    ]
  }
}
