{
  "tankbrain": {
    "in": 6,
    "hn_1": 12,
    "on": 3,
    "weights_i_h": {
      "mathjs": "DenseMatrix",
      "data": [
        [
          -1.7768575862483182,
          -2.6764439474846706,
          -0.6023481726904657,
          0.43421137941048893,
          -2.4767812170691026,
          0.7697532562497813,
          5.583307242531072,
          -3.5626171102168516,
          0.9867444852349526,
          -0.044413043892707615,
          1.7971978431002154,
          0.9710083241149265
        ],
        [
          -1.5500864146617608,
          -2.5554308348499597,
          0.7122712111779864,
          1.3304759221713844,
          -1.450074788085472,
          0.07863565653043425,
          0.21382727267067403,
          0.93115216602883,
          0.2732547036061991,
          -1.7752213107922001,
          -0.19297212075178785,
          1.8689182707260656
        ],
        [
          0.011493950535850568,
          -2.0934272526544464,
          -2.538640720113455,
          -6.565351950198471,
          0.05559603458391827,
          1.1332669333468917,
          1.762148602361482,
          2.179447726306542,
          -0.7772432829910316,
          -0.6971933967662028,
          -3.8475860582491683,
          -1.16876492292797
        ],
        [
          2.5305560451766875,
          -0.6136754871627693,
          0.6144038527773604,
          -3.3853324477006046,
          1.461281391081711,
          -2.4286759748805777,
          -1.1888283645423183,
          2.379230830959207,
          4.327595166690568,
          4.18960294587354,
          0.7535554564845547,
          -1.5144208184085093
        ],
        [
          -1.736488873171062,
          -0.06323457978941956,
          1.3560542745779902,
          0.6647841855409853,
          0.32601902605937527,
          -3.184463361702575,
          -4.371899572080052,
          -3.734256954353234,
          0.9779982456980181,
          0.35313334027027216,
          -1.5176933423648433,
          5.019184506679293
        ],
        [
          -2.6913880793290756,
          2.226085595266693,
          -1.6565028929520937,
          -3.9876783303625283,
          3.6478888793652366,
          -3.1359873636691122,
          -1.581634157644962,
          -3.1028786412927145,
          -3.4671804360573,
          2.749973728163192,
          -0.5947732887837862,
          6.916032675324042
        ]
      ],
      "size": [
        6,
        12
      ]
    },
    "weights_h_o": {
      "mathjs": "DenseMatrix",
      "data": [
        [
          -1.5596927130294058,
          -0.5166603878431868,
          0.3878611283278366
        ],
        [
          1.0043429586707944,
          -4.054378925429491,
          -0.24971354120141928
        ],
        [
          1.506214322032824,
          0.9996611782739244,
          2.0683716762605235
        ],
        [
          0.10903089610171615,
          1.0630968765971602,
          -0.7075821787957232
        ],
        [
          -0.6470955477266296,
          -0.2976342371731079,
          -0.8416993115445647
        ],
        [
          -1.4438746141042307,
          2.7679524888159044,
          1.9268916726460983
        ],
        [
          1.166299958187171,
          -1.1605070269850486,
          -1.9723638901039287
        ],
        [
          0.8224921758247922,
          4.1909420478892,
          -2.308396450409642
        ],
        [
          -1.922708632991176,
          1.5684321251513087,
          -1.4111476744122102
        ],
        [
          2.5510921239562223,
          -1.7873965682875148,
          3.857257065178689
        ],
        [
          -1.325367479210433,
          -1.2284790558928567,
          -2.936110901294294
        ],
        [
          -4.073809635454456,
          -3.9580507141470305,
          -3.084731621971533
        ]
      ],
      "size": [
        12,
        3
      ]
    },
    "bias_h1": {
      "mathjs": "DenseMatrix",
      "data": [
        -1.1278952352211118,
        0.8057440534116003,
        -0.30100320875098396,
        -2.5990141858661264,
        -0.17385402120107024,
        -1.8012836864893116,
        0.654603314433782,
        -0.7622145671428173,
        -1.6636619525079406,
        0.9600558554236447,
        0.5124120817834946,
        -0.4144098054281263
      ],
      "size": [
        12
      ]
    },
    "bias_o": {
      "mathjs": "DenseMatrix",
      "data": [
        -2.4486208334274524,
        1.1362622629458374,
        -0.19738643396351133
      ],
      "size": [
        3
      ]
    }
  },
  "inputConfig": {
    "position-x": true,
    "position-y": true,
    "velocity-x": true,
    "velocity-y": true,
    "direction": true,
    "enemy-position-x": false,
    "enemy-position-y": false,
    "enemy-velocity-x": false,
    "enemy-velocity-y": false,
    "angle-to-enemy": true,
    "projectile-position-x": false,
    "projectile-position-y": false
  },
  "botMode": "stationary",
  "outputMode": "mapped",
  "gamemode": 3,
  "generation": 4305,
  "score": 246006.08010000002
}
